[
  {
    "scene_id": "scene_0000_cam_0000",
    "tag_id": 204,
    "delta_se3": [
      4.946496680319754e-05,
      0.00011792801014821166,
      -5.937947797605861e-05,
      0.0004022278350310165,
      0.00017091055526641732,
      0.00027137680139871647
    ],
    "cov_flat": [
      6.761152033758195e-07,
      -8.284687220226521e-08,
      1.1503974600093648e-07,
      -2.599348632245177e-07,
      -1.1218548119938058e-06,
      2.1751467085363453e-07,
      -8.28468722022668e-08,
      6.343323920868705e-07,
      1.812090051799202e-07,
      9.770267537776962e-07,
      5.54122222637632e-09,
      4.510988292738061e-07,
      1.1503974600093372e-07,
      1.8120900517992085e-07,
      3.6716429713697167e-07,
      2.5631878778167933e-07,
      -4.25079159912818e-07,
      2.602269060523353e-07,
      -2.599348632245201e-07,
      9.77026753777696e-07,
      2.5631878778167774e-07,
      1.6600992785876424e-06,
      2.5163701201338837e-07,
      3.7287666763674624e-07,
      -1.121854811993804e-06,
      5.541222226373439e-09,
      -4.2507915991282217e-07,
      2.516370120133836e-07,
      2.0393404618196706e-06,
      -5.669726889394539e-07,
      2.1751467085363276e-07,
      4.5109882927380694e-07,
      2.60226906052336e-07,
      3.728766676367479e-07,
      -5.669726889394517e-07,
      1.1252108310474322e-06
    ],
    "d2_total": 7.336894506040128,
    "d2_per_axis": [
      0.003618884664365974,
      0.021923861607893697,
      0.009603118909445256,
      0.09745635900244584,
      0.014323463123666513,
      0.06545028389821281
    ],
    "convergence": 1,
    "iterations": 1,
    "final_per_corner_d2": [
      0.059005483691984925,
      0.06124320450620338,
      0.021300642673101902,
      0.015248395021111208
    ],
    "final_per_corner_irls_weight": [
      1.0,
      1.0,
      1.0,
      1.0
    ],
    "gt_corners_px": [
      [
        263.6018565372889,
        293.0881945545259
      ],
      [
        632.6007242386609,
        329.07094988341055
      ],
      [
        617.5756848603169,
        530.2286134618583
      ],
      [
        151.59718364058028,
        500.5936527451799
      ]
    ],
    "corner_residuals_px": [
      [
        0.20646255450799345,
        -0.06371945686964864
      ],
      [
        0.053877812120390445,
        -0.036465020129298864
      ],
      [
        0.12451045218313084,
        0.13063946782915536
      ],
      [
        -0.04701274214278328,
        0.1464290419294798
      ]
    ],
    "corner_residual_norms_px": [
      0.2160716445944011,
      0.06505779224589675,
      0.18047028358578215,
      0.15379096931929778
    ],
    "d2_gt_corners": 3.741618218792928e-24
  },
  {
    "scene_id": "scene_0001_cam_0000",
    "tag_id": 122,
    "delta_se3": [
      1.126052325386548e-05,
      -2.9539631128407622e-05,
      9.533766861632958e-06,
      -0.00013784707254141593,
      -9.6789192168955e-06,
      -0.00016394231649552901
    ],
    "cov_flat": [
      1.4861795418270257e-06,
      -2.2120127442267943e-07,
      -6.394933319781062e-08,
      -4.019981553062627e-07,
      -2.187671635864529e-06,
      2.3697336420741165e-08,
      -2.2120127442267914e-07,
      1.3158828342254198e-06,
      -4.042599522895879e-07,
      1.9265302987985497e-06,
      1.723057310645787e-07,
      -6.290420631980827e-07,
      -6.394933319781074e-08,
      -4.042599522895878e-07,
      4.7379340565700706e-07,
      -6.566967304063603e-07,
      2.5798890004207316e-07,
      2.290308320803565e-07,
      -4.019981553062624e-07,
      1.9265302987985497e-06,
      -6.566967304063605e-07,
      2.887014666264494e-06,
      3.684650510836371e-07,
      -7.778220531481708e-07,
      -2.1876716358645296e-06,
      1.723057310645792e-07,
      2.5798890004207306e-07,
      3.6846505108363763e-07,
      3.309541844389124e-06,
      1.566064011352744e-07,
      2.3697336420740798e-08,
      -6.290420631980828e-07,
      2.290308320803567e-07,
      -7.778220531481709e-07,
      1.56606401135275e-07,
      9.86389022938771e-07
    ],
    "d2_total": 0.3285327349513127,
    "d2_per_axis": [
      8.531902127717703e-05,
      0.0006631212023645169,
      0.00019184038757553043,
      0.006581821571701545,
      2.830647914786548e-05,
      0.027247954420503085
    ],
    "convergence": 1,
    "iterations": 1,
    "final_per_corner_d2": [
      0.003382151748371324,
      0.003536481235128107,
      0.004470488542360027,
      0.015242458789027793
    ],
    "final_per_corner_irls_weight": [
      1.0,
      1.0,
      1.0,
      1.0
    ],
    "gt_corners_px": [
      [
        1101.4065533217172,
        638.5060398232048
      ],
      [
        1420.404384778079,
        683.0413743884882
      ],
      [
        1476.882042858842,
        957.5765680119616
      ],
      [
        1180.4842944250584,
        878.320823058072
      ]
    ],
    "corner_residuals_px": [
      [
        -0.0006695326546832803,
        -0.06365701070478735
      ],
      [
        0.01590330785847982,
        -0.09484118536317965
      ],
      [
        0.01908018803305822,
        -0.06478822680537633
      ],
      [
        0.07027100462914859,
        0.029945984896698974
      ]
    ],
    "corner_residual_norms_px": [
      0.06366053161767578,
      0.09616530373234718,
      0.06753938042328891,
      0.07638570614338225
    ],
    "d2_gt_corners": 3.7162544683016245e-25
  },
  {
    "scene_id": "scene_0002_cam_0000",
    "tag_id": 46,
    "delta_se3": [
      8.477844870056814e-05,
      -0.00019003120193323908,
      -0.00020576242870694076,
      0.0007329482749626023,
      -0.0009254861973727337,
      0.000902637766642891
    ],
    "cov_flat": [
      7.498781557657988e-06,
      1.4450048873207372e-07,
      1.1396989979125574e-06,
      1.6551032033819559e-07,
      -7.963760692301108e-06,
      -1.1240670129983125e-06,
      1.4450048873208714e-07,
      6.553384053052755e-06,
      -1.9716424558592957e-06,
      6.9788824903461985e-06,
      -3.919106631617606e-08,
      -2.4690092565758835e-07,
      1.139698997912553e-06,
      -1.971642455859308e-06,
      2.304221370756125e-06,
      -2.2167192670100755e-06,
      -1.3616267350017348e-06,
      -1.1009403594050629e-07,
      1.6551032033820996e-07,
      6.978882490346199e-06,
      -2.2167192670100628e-06,
      7.465498789835266e-06,
      -5.346280655724879e-08,
      -3.7510744328856635e-07,
      -7.963760692301111e-06,
      -3.919106631616032e-08,
      -1.36162673500174e-06,
      -5.3462806557231965e-08,
      8.493330876035534e-06,
      1.305952440348646e-06,
      -1.1240670129983128e-06,
      -2.469009256575763e-07,
      -1.1009403594051059e-07,
      -3.751074432885535e-07,
      1.3059524403486467e-06,
      1.7085211452631665e-06
    ],
    "d2_total": 111.9550394190905,
    "d2_per_axis": [
      0.0009584737612118975,
      0.005510413767276396,
      0.01837417949712258,
      0.07195944824237371,
      0.10084673657824644,
      0.4768772924051624
    ],
    "convergence": 1,
    "iterations": 1,
    "final_per_corner_d2": [
      0.06021978258663763,
      0.10215225346058458,
      0.17348479580077406,
      0.2860337951100128
    ],
    "final_per_corner_irls_weight": [
      1.0,
      1.0,
      1.0,
      1.0
    ],
    "gt_corners_px": [
      [
        774.3492128664234,
        552.2826857166438
      ],
      [
        990.1480036785308,
        619.983443188469
      ],
      [
        974.3834549062383,
        794.0921871434108
      ],
      [
        778.6364580062636,
        724.552410424521
      ]
    ],
    "corner_residuals_px": [
      [
        -0.0024721437671360036,
        0.05172590444999514
      ],
      [
        0.012396712094187023,
        0.028153491218517956
      ],
      [
        0.12808073829296518,
        0.028418325339202966
      ],
      [
        -0.3269487289198878,
        -0.20737868623973554
      ]
    ],
    "corner_residual_norms_px": [
      0.05178494651899736,
      0.030761949524328435,
      0.13119556675724917,
      0.38717100982492086
    ],
    "d2_gt_corners": 4.272862637517196e-24
  },
  {
    "scene_id": "scene_0003_cam_0000",
    "tag_id": 109,
    "delta_se3": [
      0.0015043863840453098,
      -0.0004832766128569076,
      -0.001055067049035971,
      -0.0002235550069526124,
      0.0013139363095939303,
      -0.0001774984425754592
    ],
    "cov_flat": [
      8.924479494448507e-06,
      2.9459619120498875e-07,
      -8.864849240270241e-07,
      3.575650526530543e-07,
      -8.013898359223533e-06,
      -2.9160209936881862e-06,
      2.945961912049904e-07,
      8.692991589893402e-06,
      -2.1790784541362503e-06,
      7.832997808464459e-06,
      -2.3434562852644138e-07,
      1.2108920028905968e-06,
      -8.864849240270233e-07,
      -2.17907845413627e-06,
      3.65774321601354e-06,
      -1.7949488359493304e-06,
      6.471251763952476e-07,
      -5.925128977933432e-08,
      3.5756505265305567e-07,
      7.832997808464459e-06,
      -1.7949488359493124e-06,
      7.095942064600253e-06,
      -2.9421539895527675e-07,
      9.258941967846047e-07,
      -8.013898359223535e-06,
      -2.3434562852643931e-07,
      6.471251763952481e-07,
      -2.942153989552751e-07,
      7.232396310487401e-06,
      2.464310778308806e-06,
      -2.916020993688181e-06,
      1.2108920028906023e-06,
      -5.92512897793326e-08,
      9.258941967846097e-07,
      2.464310778308801e-06,
      3.85450110015197e-06
    ],
    "d2_total": 352.6801105910111,
    "d2_per_axis": [
      0.2535922004088572,
      0.026867193200322576,
      0.30433149956728717,
      0.007043017076323608,
      0.23870769127597352,
      0.008173741892425824
    ],
    "convergence": 1,
    "iterations": 1,
    "final_per_corner_d2": [
      0.022311080523915866,
      0.023590328317356198,
      0.023564498133672403,
      0.036375000574907265
    ],
    "final_per_corner_irls_weight": [
      1.0,
      1.0,
      1.0,
      1.0
    ],
    "gt_corners_px": [
      [
        813.8067144903143,
        551.4273931314431
      ],
      [
        801.7353004319591,
        428.2993594412961
      ],
      [
        995.9729785229947,
        357.9543339802367
      ],
      [
        985.7920944062581,
        484.2505182421491
      ]
    ],
    "corner_residuals_px": [
      [
        -0.1403936895330844,
        0.08078557949443166
      ],
      [
        -0.16816176008410366,
        -0.018353581921076056
      ],
      [
        0.28080565669279167,
        -0.039661128674197244
      ],
      [
        0.08418733202313433,
        -0.13305608394597357
      ]
    ],
    "corner_residual_norms_px": [
      0.16197746113260086,
      0.16916037220317673,
      0.2835927043461824,
      0.15745294010659636
    ],
    "d2_gt_corners": 2.8489109533669373e-25
  },
  {
    "scene_id": "scene_0004_cam_0000",
    "tag_id": 519,
    "delta_se3": [
      -4.954531507410105e-05,
      0.00023307854775558973,
      0.0002991434511013995,
      0.00039943027358291353,
      0.00035019649735667266,
      -0.00013046411361986585
    ],
    "cov_flat": [
      9.024326471566415e-06,
      -7.22152140817889e-07,
      2.6124419829786443e-06,
      -1.1142081042243011e-06,
      -9.948029268275517e-06,
      2.1715828133845325e-06,
      -7.221521408178446e-07,
      1.025342466525875e-05,
      2.0111014942976184e-06,
      1.1136927025955175e-05,
      4.236636056973886e-07,
      -2.333621467202035e-07,
      2.612441982978654e-06,
      2.0111014942976036e-06,
      2.5505803762286592e-06,
      2.073070024643893e-06,
      -3.177385822359399e-06,
      6.652112843565368e-07,
      -1.114208104224253e-06,
      1.1136927025955182e-05,
      2.0730700246439104e-06,
      1.2159182306530832e-05,
      8.265362465528282e-07,
      -5.453489600922744e-07,
      -9.948029268275524e-06,
      4.2366360569743816e-07,
      -3.177385822359389e-06,
      8.265362465528817e-07,
      1.103266892649436e-05,
      -2.4010339972072295e-06,
      2.1715828133845346e-06,
      -2.3336214672024294e-07,
      6.652112843565287e-07,
      -5.453489600923172e-07,
      -2.4010339972072304e-06,
      1.9130378250084843e-06
    ],
    "d2_total": 8.06544445708915,
    "d2_per_axis": [
      0.0002720134575722922,
      0.0052982892250551085,
      0.035084879179213484,
      0.013121321765924013,
      0.011115858508757976,
      0.00889730705797298
    ],
    "convergence": 1,
    "iterations": 1,
    "final_per_corner_d2": [
      0.04193425961815747,
      0.043562273114562636,
      0.029690628188693263,
      0.04221413074654787
    ],
    "final_per_corner_irls_weight": [
      1.0,
      1.0,
      1.0,
      1.0
    ],
    "gt_corners_px": [
      [
        910.0625922923048,
        523.4329747737435
      ],
      [
        723.1177440959973,
        686.9567052592923
      ],
      [
        588.5815484264431,
        539.6955843995754
      ],
      [
        765.7852359232464,
        394.2496721502997
      ]
    ],
    "corner_residuals_px": [
      [
        -0.12680127667977104,
        -0.09624381671221727
      ],
      [
        0.03691898994020448,
        -0.06809441944858463
      ],
      [
        0.021784093088172085,
        -0.05953703629415941
      ],
      [
        0.05106778769106768,
        0.13384225399715888
      ]
    ],
    "corner_residual_norms_px": [
      0.1591899369399797,
      0.07745877470141585,
      0.06339720342701403,
      0.1432538582192464
    ],
    "d2_gt_corners": 2.7454347040907257e-25
  },
  {
    "scene_id": "scene_0005_cam_0000",
    "tag_id": 34,
    "delta_se3": [
      -0.010200002444700733,
      0.017200435323140365,
      -0.017254732689242654,
      -0.0033299569171061924,
      0.008719256908019384,
      0.006869412108520634
    ],
    "cov_flat": [
      0.0006520037240198425,
      1.0554077064301339e-05,
      -0.00021930503765755122,
      -7.411213721126265e-06,
      -0.00021996354111858705,
      -5.641993759605684e-05,
      1.0554077064307803e-05,
      0.0007222438281192938,
      -8.122560585101023e-05,
      0.00024170167377447527,
      -1.1479569920511627e-05,
      2.33559310245436e-05,
      -0.00021930503765755737,
      -8.122560585100495e-05,
      0.00026747401698104604,
      -1.8129630076507206e-05,
      8.250408399191182e-05,
      1.9000580783677672e-05,
      -7.411213721124527e-06,
      0.00024170167377447505,
      -1.8129630076508907e-05,
      8.156983159372561e-05,
      -1.347144330132137e-07,
      1.1330869462903569e-05,
      -0.00021996354111858716,
      -1.147956992050898e-05,
      8.250408399190978e-05,
      -1.347144330124726e-07,
      7.476362445771185e-05,
      1.7291225210721495e-05,
      -5.641993759605869e-05,
      2.3355931024541634e-05,
      1.9000580783677882e-05,
      1.1330869462902913e-05,
      1.7291225210722122e-05,
      2.491524254110714e-05
    ],
    "d2_total": 6344.242186071597,
    "d2_per_axis": [
      0.15956971722562532,
      0.4096330958977307,
      1.113101764192358,
      0.13594012459180213,
      1.016877413039888,
      1.8939740457607046
    ],
    "convergence": 1,
    "iterations": 2,
    "final_per_corner_d2": [
      0.039264725622393915,
      0.06279582759429214,
      0.045969471167899525,
      0.053765275835211075
    ],
    "final_per_corner_irls_weight": [
      1.0,
      1.0,
      1.0,
      1.0
    ],
    "gt_corners_px": [
      [
        1176.1486735130122,
        399.11135916026365
      ],
      [
        1149.3619969602255,
        460.3879408096394
      ],
      [
        1093.8572277807439,
        460.50526749850303
      ],
      [
        1119.9199127511615,
        397.3900189674315
      ]
    ],
    "corner_residuals_px": [
      [
        0.20691730730027302,
        -0.07739309581052112
      ],
      [
        -0.08587391335049688,
        0.5871263290324578
      ],
      [
        -0.22075317136886952,
        0.5040708804032192
      ],
      [
        0.004159514463481173,
        -0.5793805396971266
      ]
    ],
    "corner_residual_norms_px": [
      0.22091732240712164,
      0.5933731163755723,
      0.5502903007866757,
      0.5793954705900846
    ],
    "d2_gt_corners": 7.805689176724852e-25
  },
  {
    "scene_id": "scene_0006_cam_0000",
    "tag_id": 467,
    "delta_se3": [
      1.8413248843507094e-05,
      -4.2363732579565214e-05,
      3.2972686583954704e-05,
      0.000188429511898841,
      7.196913309348295e-05,
      5.521912990005379e-05
    ],
    "cov_flat": [
      8.156254588733369e-07,
      -7.391339923356003e-08,
      3.695174766683365e-08,
      -1.7321714380221704e-07,
      -1.4272464425837478e-06,
      3.746273862004329e-07,
      -7.391339923355925e-08,
      1.0353899043900583e-06,
      2.1653534203566988e-07,
      1.8376963946742054e-06,
      9.71207428048617e-08,
      1.0082895235754382e-07,
      3.6951747666833855e-08,
      2.1653534203566959e-07,
      1.968106872487029e-07,
      3.7307358374608554e-07,
      -9.769720189653754e-08,
      5.21522808963299e-08,
      -1.7321714380221566e-07,
      1.8376963946742057e-06,
      3.7307358374608607e-07,
      3.28483140458439e-06,
      2.467360307098064e-07,
      1.1332450769399915e-07,
      -1.427246442583748e-06,
      9.712074280486311e-08,
      -9.769720189653718e-08,
      2.467360307098089e-07,
      2.518736764658103e-06,
      -6.516931940931407e-07,
      3.746273862004332e-07,
      1.0082895235754258e-07,
      5.215228089632966e-08,
      1.1332450769399691e-07,
      -6.516931940931411e-07,
      6.741160239552848e-07
    ],
    "d2_total": 5.331036437418691,
    "d2_per_axis": [
      0.00041569047322438717,
      0.0017333429951976915,
      0.005524080403163532,
      0.01080898121738695,
      0.00205641025727853,
      0.004523186215079897
    ],
    "convergence": 1,
    "iterations": 1,
    "final_per_corner_d2": [
      0.004491102114593004,
      0.013873464877915137,
      0.0032221552331365157,
      0.0032999313407720333
    ],
    "final_per_corner_irls_weight": [
      1.0,
      1.0,
      1.0,
      1.0
    ],
    "gt_corners_px": [
      [
        603.114708712291,
        497.0377145830733
      ],
      [
        929.6988546722865,
        395.218412293837
      ],
      [
        1141.6549729165731,
        631.093574737793
      ],
      [
        790.5428516699712,
        788.1701621417923
      ]
    ],
    "corner_residuals_px": [
      [
        0.026160428334037533,
        -0.05465183893267067
      ],
      [
        -0.05591033634902942,
        -0.03420819227449101
      ],
      [
        -0.03644264313561507,
        -0.011848663574255625
      ],
      [
        -0.05737803715874179,
        -0.01671975897977518
      ]
    ],
    "corner_residual_norms_px": [
      0.06059035822094875,
      0.06554514573444892,
      0.03832045233560904,
      0.05976445003956554
    ],
    "d2_gt_corners": 4.572138164710339e-25
  },
  {
    "scene_id": "scene_0007_cam_0000",
    "tag_id": 47,
    "delta_se3": [
      -0.000701405195756181,
      -0.00012227700989330268,
      0.00045164066895308943,
      0.00019007929208630909,
      0.001310391953305613,
      0.0015702501828778327
    ],
    "cov_flat": [
      2.513447909067706e-05,
      2.4627116862863174e-07,
      2.7021292060098605e-06,
      -2.690624341150449e-07,
      -1.728093481415741e-05,
      -3.315124020238461e-06,
      2.4627116862868955e-07,
      2.2524360601396596e-05,
      -8.678466920216738e-06,
      1.5557294102896703e-05,
      -6.597704657743295e-07,
      -3.0055072435147533e-06,
      2.7021292060098232e-06,
      -8.678466920216923e-06,
      1.343252876388258e-05,
      -6.749840610805997e-06,
      -1.364905174516462e-06,
      9.909957735058901e-07,
      -2.6906243411500197e-07,
      1.5557294102896717e-05,
      -6.749840610805874e-06,
      1.0827211614572668e-05,
      -1.5646307992279288e-07,
      -1.8582863925371799e-06,
      -1.7280934814157405e-05,
      -6.597704657742953e-07,
      -1.364905174516489e-06,
      -1.5646307992276694e-07,
      1.1967389907864234e-05,
      2.8041066989332464e-06,
      -3.3151240202384217e-06,
      -3.005507243514748e-06,
      9.90995773505868e-07,
      -1.8582863925371746e-06,
      2.8041066989332193e-06,
      4.974932928381694e-06
    ],
    "d2_total": 30.007930090615602,
    "d2_per_axis": [
      0.019573480988362677,
      0.0006637998482194332,
      0.01518547232899692,
      0.0033369752588379973,
      0.14348384104705317,
      0.4956218852240758
    ],
    "convergence": 1,
    "iterations": 1,
    "final_per_corner_d2": [
      0.06468649977257593,
      0.020434358805391517,
      0.03983716884204967,
      0.04095267741314019
    ],
    "final_per_corner_irls_weight": [
      1.0,
      1.0,
      1.0,
      1.0
    ],
    "gt_corners_px": [
      [
        950.2181304340497,
        679.4375844474197
      ],
      [
        992.1688481983774,
        610.7581998250939
      ],
      [
        1096.2314409423368,
        724.6523299311079
      ],
      [
        1044.4861002586551,
        785.5341012631977
      ]
    ],
    "corner_residuals_px": [
      [
        0.13349310110652368,
        -0.10848288491968106
      ],
      [
        0.022802192247581843,
        0.09232507724982497
      ],
      [
        0.006718237350696654,
        0.20326088920455732
      ],
      [
        -0.10804850084264217,
        -0.20640350929147644
      ]
    ],
    "corner_residual_norms_px": [
      0.17201437254931146,
      0.09509921061965672,
      0.203371885454523,
      0.23297400537866675
    ],
    "d2_gt_corners": 1.042767977571549e-24
  },
  {
    "scene_id": "scene_0008_cam_0000",
    "tag_id": 563,
    "delta_se3": [
      -0.0034342869231980657,
      0.0037234504498867846,
      -0.00993276949117284,
      -0.009116404752951456,
      -0.01223017717291602,
      0.00048023879149299643
    ],
    "cov_flat": [
      0.0001569219982983428,
      3.237691485344558e-05,
      1.7175229414923975e-05,
      2.3997426046945442e-05,
      -0.00011506984175655743,
      8.150886134190485e-06,
      3.237691485344546e-05,
      0.00015979195761491141,
      1.8795286337464416e-05,
      0.00011714294779925311,
      -2.378448001552003e-05,
      -1.1940306911328213e-05,
      1.717522941492393e-05,
      1.8795286337464443e-05,
      1.2433303592225877e-05,
      1.3757464682127821e-05,
      -1.247043158512287e-05,
      -3.9049916541897675e-07,
      2.3997426046945354e-05,
      0.0001171429477992531,
      1.3757464682127799e-05,
      8.59077045560018e-05,
      -1.762852400940294e-05,
      -8.650741098943847e-06,
      -0.00011506984175655743,
      -2.3784480015520138e-05,
      -1.2470431585122904e-05,
      -1.7628524009403023e-05,
      8.441098788758825e-05,
      -5.935727645783809e-06,
      8.15088613419049e-06,
      -1.1940306911328184e-05,
      -3.904991654189696e-07,
      -8.650741098943825e-06,
      -5.935727645783812e-06,
      6.518053817985571e-06
    ],
    "d2_total": 12405.18014840079,
    "d2_per_axis": [
      0.07516044148523816,
      0.08676333565030644,
      7.935132367109788,
      0.967420047470348,
      1.7720114101745972,
      0.03538315320721463
    ],
    "convergence": 1,
    "iterations": 1,
    "final_per_corner_d2": [
      0.6246384705594723,
      37.727948284726025,
      0.9668602915347653,
      0.8582262539176649
    ],
    "final_per_corner_irls_weight": [
      1.0,
      0.21897306146225853,
      1.0,
      1.0
    ],
    "gt_corners_px": [
      [
        880.7298174198631,
        602.6108890258074
      ],
      [
        903.439350376569,
        456.4116519431901
      ],
      [
        1049.71077826325,
        455.2465981274078
      ],
      [
        1031.4017086412773,
        607.6683240709991
      ]
    ],
    "corner_residuals_px": [
      [
        -1.3296099003318886,
        0.2552608765363402
      ],
      [
        3.8097340960872543,
        0.42404141618487756
      ],
      [
        0.1831426351875507,
        -0.6658791332671967
      ],
      [
        0.11855503059769035,
        0.2496446790008804
      ]
    ],
    "corner_residual_norms_px": [
      1.3538909122047742,
      3.83326036234559,
      0.690605708739881,
      0.2763652674151944
    ],
    "d2_gt_corners": 3.957996791297715e-26
  },
  {
    "scene_id": "scene_0009_cam_0000",
    "tag_id": 570,
    "delta_se3": [
      -0.001685120916856556,
      0.001198670564165561,
      -0.008097553202135468,
      0.001815252614902437,
      -0.008028118783122052,
      0.0043392542524287895
    ],
    "cov_flat": [
      0.0017761728899265599,
      -3.548649679779525e-05,
      -6.982506624326068e-05,
      -1.9908672342285524e-05,
      -0.0008391138895517463,
      8.803008087991977e-05,
      -3.5486496797671515e-05,
      0.0016237243534857134,
      -0.0004326995888092998,
      0.0007781793801539629,
      -2.5720390325516115e-05,
      -0.00018401461646520888,
      -6.98250662432941e-05,
      -0.0004326995888092799,
      0.00015225927817123937,
      -0.00021008007473743325,
      4.660074011910159e-05,
      4.575673280574622e-05,
      -1.990867234222612e-05,
      0.0007781793801539609,
      -0.00021008007473744228,
      0.00037334300824160384,
      -1.0968873310881834e-05,
      -8.742565329597835e-05,
      -0.0008391138895517496,
      -2.5720390325457734e-05,
      4.660074011908633e-05,
      -1.0968873310853862e-05,
      0.00039794168807443127,
      -3.5517453138183456e-05,
      8.803008087990634e-05,
      -0.00018401461646522056,
      4.575673280575158e-05,
      -8.742565329598417e-05,
      -3.5517453138176815e-05,
      3.164158788768625e-05
    ],
    "d2_total": 4007.8777639001246,
    "d2_per_axis": [
      0.0015987365422207808,
      0.0008848861066304296,
      0.43064940704414906,
      0.008826044637690733,
      0.16196013920477265,
      0.5950753019746188
    ],
    "convergence": 1,
    "iterations": 1,
    "final_per_corner_d2": [
      0.005365230182293506,
      0.003622342143205209,
      0.0021218712975759804,
      0.003925139965080707
    ],
    "final_per_corner_irls_weight": [
      1.0,
      1.0,
      1.0,
      1.0
    ],
    "gt_corners_px": [
      [
        1216.1087640820017,
        844.313191644069
      ],
      [
        1111.093527813381,
        855.4066531185019
      ],
      [
        1093.2132616382276,
        750.2478021234449
      ],
      [
        1197.2976410896197,
        736.6389217775413
      ]
    ],
    "corner_residuals_px": [
      [
        -0.008056074189198625,
        0.5644328676497707
      ],
      [
        -0.4018774227558879,
        -0.04471464193943575
      ],
      [
        0.062128986772449935,
        -0.5076287836011488
      ],
      [
        0.34957570725532605,
        0.018426855271172826
      ]
    ],
    "corner_residual_norms_px": [
      0.5644903563522459,
      0.4043573445910023,
      0.5114166529726552,
      0.3500610291052778
    ],
    "d2_gt_corners": 2.4804091548408145e-27
  },
  {
    "scene_id": "scene_0010_cam_0000",
    "tag_id": 200,
    "delta_se3": [
      3.06559684023732e-05,
      1.7240576166497966e-05,
      1.7876931165026504e-05,
      0.0003249847193457307,
      0.0009743943585220185,
      4.796265092557795e-06
    ],
    "cov_flat": [
      2.0443939792513983e-06,
      -3.0634605888037825e-08,
      2.4380373618827774e-07,
      -1.6129861685112055e-07,
      -2.4871186443516323e-06,
      5.486209822491336e-07,
      -3.0634605888037983e-08,
      1.8559975737038923e-06,
      -5.796525530894979e-07,
      2.3792653032943883e-06,
      -2.2817930045651362e-07,
      -9.4899557725935e-07,
      2.43803736188278e-07,
      -5.796525530894976e-07,
      7.776214168935545e-07,
      -9.487433641260005e-07,
      -9.021227279416604e-08,
      4.400081660209859e-07,
      -1.612986168511207e-07,
      2.379265303294388e-06,
      -9.487433641260006e-07,
      3.1513949031790952e-06,
      -1.5227087205002986e-07,
      -1.1620260547975962e-06,
      -2.4871186443516315e-06,
      -2.281793004565138e-07,
      -9.021227279416565e-08,
      -1.522708720500301e-07,
      3.172599329596179e-06,
      -2.7863355144887147e-07,
      5.486209822491337e-07,
      -9.489955772593502e-07,
      4.400081660209863e-07,
      -1.1620260547975968e-06,
      -2.7863355144887147e-07,
      1.4799920180674413e-06
    ],
    "d2_total": 68.2494988528537,
    "d2_per_axis": [
      0.0004596904550811821,
      0.00016014970642426026,
      0.0004109771939612647,
      0.033513752180559776,
      0.2992638739668349,
      1.5543434395090208e-05
    ],
    "convergence": 1,
    "iterations": 1,
    "final_per_corner_d2": [
      0.08991128409123078,
      0.06061234399273591,
      0.14305623179118673,
      0.045019577093720314
    ],
    "final_per_corner_irls_weight": [
      1.0,
      1.0,
      1.0,
      1.0
    ],
    "gt_corners_px": [
      [
        1164.9590673676262,
        796.5873938099335
      ],
      [
        1350.4143564024441,
        1053.779195778369
      ],
      [
        1144.8601206106,
        1067.7471682229716
      ],
      [
        986.1083008903279,
        850.4789764600304
      ]
    ],
    "corner_residuals_px": [
      [
        -0.013999008251175837,
        0.052620838504026324
      ],
      [
        0.004710980368372475,
        0.13242531538094227
      ],
      [
        -0.17689307153750633,
        0.16201146452840476
      ],
      [
        0.18845203935961763,
        -0.11679384284286698
      ]
    ],
    "corner_residual_norms_px": [
      0.05445112374307172,
      0.13250908455563798,
      0.23987261910566593,
      0.22170920789359017
    ],
    "d2_gt_corners": 7.816792136453377e-26
  },
  {
    "scene_id": "scene_0011_cam_0000",
    "tag_id": 497,
    "delta_se3": [
      -0.0005381586866647865,
      1.5074838460234726e-05,
      -0.0003122076729463681,
      -0.00017309410131622222,
      -0.00022175523991776151,
      -0.0004395989289747827
    ],
    "cov_flat": [
      4.209655367159664e-06,
      -2.9271020922509066e-08,
      -1.1157999383705523e-06,
      -1.6475165045057765e-08,
      -4.440879936019193e-06,
      -7.116213131023567e-07,
      -2.9271020922509182e-08,
      4.431714438297177e-06,
      -6.460112819597065e-07,
      4.652100511035864e-06,
      3.395322584393176e-08,
      1.5851401621546272e-06,
      -1.115799938370552e-06,
      -6.460112819597066e-07,
      2.2085675634534516e-06,
      -6.609449649901893e-07,
      1.1104341885077017e-06,
      -4.6983667534895e-08,
      -1.647516504505788e-08,
      4.652100511035863e-06,
      -6.609449649901893e-07,
      4.904987706024546e-06,
      2.040105186425496e-08,
      1.5963837185327557e-06,
      -4.440879936019193e-06,
      3.395322584393168e-08,
      1.1104341885077017e-06,
      2.0401051864254876e-08,
      4.7068054955950945e-06,
      7.320150260309164e-07,
      -7.116213131023566e-07,
      1.585140162154627e-06,
      -4.6983667534894995e-08,
      1.5963837185327554e-06,
      7.320150260309164e-07,
      2.82073744793748e-06
    ],
    "d2_total": 36.29669647860315,
    "d2_per_axis": [
      0.06879773919074438,
      5.127829370917002e-05,
      0.04413432156640507,
      0.006108387972852682,
      0.01044772011016924,
      0.06850946673433864
    ],
    "convergence": 1,
    "iterations": 1,
    "final_per_corner_d2": [
      0.01622656165427141,
      0.03310387744521112,
      0.02928317039096595,
      0.018046796736760753
    ],
    "final_per_corner_irls_weight": [
      1.0,
      1.0,
      1.0,
      1.0
    ],
    "gt_corners_px": [
      [
        903.942881531117,
        405.3527727753302
      ],
      [
        1013.6560732337833,
        453.54806365325527
      ],
      [
        944.480631948964,
        657.2160920900444
      ],
      [
        824.3374719856838,
        641.373369061589
      ]
    ],
    "corner_residuals_px": [
      [
        -0.11292547642949557,
        -0.03932673040833379
      ],
      [
        0.02691016465416851,
        -0.0145553524740194
      ],
      [
        -0.021037222401446343,
        0.010897656049337456
      ],
      [
        -0.015267395840055542,
        0.23008552825479
      ]
    ],
    "corner_residual_norms_px": [
      0.1195774015081375,
      0.03059436626827565,
      0.02369226949318231,
      0.23059150827387967
    ],
    "d2_gt_corners": 2.0455173273227482e-25
  },
  {
    "scene_id": "scene_0012_cam_0000",
    "tag_id": 428,
    "delta_se3": [
      -9.025780631389216e-05,
      0.00025863773992223116,
      -0.0002934270785923953,
      0.0027783294814989375,
      -0.00026609565149982836,
      -0.0004126828475911618
    ],
    "cov_flat": [
      4.146827928806267e-06,
      9.897356634234629e-09,
      -7.374752052375035e-07,
      1.9988901348977427e-07,
      -5.064602011946747e-06,
      8.309623589195824e-07,
      9.897356634264063e-09,
      4.351422146984323e-06,
      -7.314216473975813e-07,
      5.349955288697448e-06,
      4.0502026335238705e-07,
      2.365679507357633e-06,
      -7.374752052375094e-07,
      -7.314216473975768e-07,
      9.713334279458962e-07,
      -1.0922777024985855e-06,
      6.997485859436223e-07,
      -5.902330328328901e-07,
      1.9988901348980934e-07,
      5.349955288697446e-06,
      -1.0922777024985904e-06,
      6.659782135047856e-06,
      2.7074111770748827e-07,
      2.8090968762990196e-06,
      -5.064602011946742e-06,
      4.0502026335242294e-07,
      6.997485859436146e-07,
      2.707411177075311e-07,
      6.306782633521208e-06,
      -5.720159200298071e-07,
      8.309623589196096e-07,
      2.3656795073576283e-06,
      -5.902330328328932e-07,
      2.8090968762990145e-06,
      -5.720159200298414e-07,
      2.6246907386726917e-06
    ],
    "d2_total": 280.68751466338176,
    "d2_per_axis": [
      0.001964506784572845,
      0.015372785781871116,
      0.08864046883812539,
      1.1590641482314328,
      0.011227102607084009,
      0.06488655222751102
    ],
    "convergence": 1,
    "iterations": 1,
    "final_per_corner_d2": [
      0.05808149547048428,
      0.09226774235376918,
      0.038802651073643835,
      0.026847801583188384
    ],
    "final_per_corner_irls_weight": [
      1.0,
      1.0,
      1.0,
      1.0
    ],
    "gt_corners_px": [
      [
        902.4970051120432,
        638.5817065855501
      ],
      [
        903.9685417120197,
        904.4229640633046
      ],
      [
        687.8939669955607,
        955.37423820669
      ],
      [
        688.6740846428911,
        644.7448638924424
      ]
    ],
    "corner_residuals_px": [
      [
        0.24481617701928826,
        -0.10166508164388688
      ],
      [
        0.4035896356365356,
        -0.14134785236706193
      ],
      [
        -0.35118135102948145,
        0.03640632455994819
      ],
      [
        -0.2997560296098527,
        -0.13890686119236761
      ]
    ],
    "corner_residual_norms_px": [
      0.2650863054855865,
      0.42762578191920597,
      0.3530633962602979,
      0.33037674460194466
    ],
    "d2_gt_corners": 6.226972472183857e-25
  },
  {
    "scene_id": "scene_0013_cam_0000",
    "tag_id": 389,
    "delta_se3": [
      0.00021256146940752178,
      -0.0017869035448506085,
      0.0011539867797743454,
      -0.0017507521062711342,
      -0.003117770123148964,
      -0.001616596332853462
    ],
    "cov_flat": [
      0.00011889654149982436,
      -2.3366041061424746e-07,
      1.9484824881779837e-05,
      1.1236037520110055e-06,
      -5.3278266635214735e-05,
      -2.1824791958340317e-05,
      -2.336604106147543e-07,
      0.00012451140078384947,
      -2.9581145123408018e-05,
      5.613030574830664e-05,
      1.3002896412992572e-06,
      -7.410613488759934e-06,
      1.948482488177993e-05,
      -2.958114512340792e-05,
      5.785056435332098e-05,
      -1.100148664213618e-05,
      -9.487746637245932e-06,
      -2.2451901625212702e-06,
      1.1236037520107653e-06,
      5.613030574830664e-05,
      -1.100148664213623e-05,
      2.5436584766516786e-05,
      3.848794735235711e-08,
      -3.836801045820235e-06,
      -5.327826663521477e-05,
      1.3002896412990448e-06,
      -9.487746637245902e-06,
      3.84879473522555e-08,
      2.4006672110347592e-05,
      8.698745637624229e-06,
      -2.182479195833994e-05,
      -7.410613488760192e-06,
      -2.2451901625211504e-06,
      -3.836801045820349e-06,
      8.698745637624051e-06,
      1.5030798729311624e-05
    ],
    "d2_total": 579.9081405730801,
    "d2_per_axis": [
      0.0003800142351218144,
      0.025644433027805447,
      0.02301940357505806,
      0.12050096212788645,
      0.4049078729496407,
      0.1738685847944255
    ],
    "convergence": 1,
    "iterations": 1,
    "final_per_corner_d2": [
      0.06077589783512774,
      0.0767623830176809,
      0.03590843586040572,
      0.047848818915836144
    ],
    "final_per_corner_irls_weight": [
      1.0,
      1.0,
      1.0,
      1.0
    ],
    "gt_corners_px": [
      [
        952.6364601853529,
        466.13036107734905
      ],
      [
        875.6088235367523,
        405.01049277759773
      ],
      [
        900.7740312584992,
        356.44026202592715
      ],
      [
        982.9933843600858,
        421.6572674341195
      ]
    ],
    "corner_residuals_px": [
      [
        -0.043747783009166596,
        -0.09508275703655045
      ],
      [
        0.29956269371643884,
        -0.0033821818946080384
      ],
      [
        -0.06498584834298526,
        -0.08464068803652935
      ],
      [
        -0.1850347507107699,
        0.09346498775551026
      ]
    ],
    "corner_residual_norms_px": [
      0.10466422122143176,
      0.29958178619705367,
      0.10671085491249034,
      0.2073006582399932
    ],
    "d2_gt_corners": 7.41114115136369e-25
  },
  {
    "scene_id": "scene_0014_cam_0000",
    "tag_id": 66,
    "delta_se3": [
      0.0003263201963561774,
      -0.0003595798221926346,
      0.00040810215058231835,
      -0.0002557587971220397,
      0.0005221212083156314,
      0.0005636434834202834
    ],
    "cov_flat": [
      3.2674531149761322e-06,
      -1.3146823824073456e-07,
      6.009382939965257e-09,
      -2.146552434902553e-07,
      -3.940200665350216e-06,
      3.9182183437309166e-07,
      -1.3146823824072916e-07,
      2.761254239870665e-06,
      -4.595232823459868e-07,
      3.2076153036144793e-06,
      -5.389064965140846e-08,
      -1.416687113575981e-06,
      6.0093829399723755e-09,
      -4.5952328234598667e-07,
      6.308379446702714e-07,
      -6.273967621480353e-07,
      1.9160427028757848e-07,
      2.4061011586539125e-07,
      -2.1465524349025168e-07,
      3.2076153036144776e-06,
      -6.27396762148035e-07,
      3.8008480749973866e-06,
      1.1620350703614058e-08,
      -1.465828016388367e-06,
      -3.940200665350214e-06,
      -5.389064965140261e-08,
      1.9160427028758725e-07,
      1.162035070361747e-08,
      4.845757297200399e-06,
      -2.4929463272196763e-07,
      3.918218343730832e-07,
      -1.4166871135759865e-06,
      2.406101158653919e-07,
      -1.4658280163883737e-06,
      -2.492946327219575e-07,
      1.5735340901722063e-06
    ],
    "d2_total": 40.090131539846595,
    "d2_per_axis": [
      0.032589563431489985,
      0.04682569488209928,
      0.2640097456359649,
      0.017209991300522483,
      0.05625757532893233,
      0.20189837537449415
    ],
    "convergence": 1,
    "iterations": 1,
    "final_per_corner_d2": [
      0.0014984153235079838,
      0.005336717794926693,
      0.0011793449934845842,
      0.0015027098810327945
    ],
    "final_per_corner_irls_weight": [
      1.0,
      1.0,
      1.0,
      1.0
    ],
    "gt_corners_px": [
      [
        1326.1746229229032,
        963.8394209449622
      ],
      [
        1166.3113223173407,
        772.0614268432596
      ],
      [
        1243.0521240203625,
        564.7100593687934
      ],
      [
        1435.178297990282,
        744.9424484018489
      ]
    ],
    "corner_residuals_px": [
      [
        -0.038270383840654176,
        -0.20605912855592123
      ],
      [
        0.021563424846817725,
        -0.15255233154084635
      ],
      [
        0.008056643700001587,
        0.12990645151910485
      ],
      [
        -0.09236049028208981,
        0.09521028955737165
      ]
    ],
    "corner_residual_norms_px": [
      0.20958288751836748,
      0.15406880005267992,
      0.13015604347856582,
      0.1326478774905447
    ],
    "d2_gt_corners": 9.3769303122227e-24
  },
  {
    "scene_id": "scene_0015_cam_0000",
    "tag_id": 59,
    "delta_se3": [
      0.00018007478333165422,
      -0.000493293011522855,
      -0.0008939052274784594,
      -0.00220344453699633,
      0.0036908555881325824,
      0.00022091888010229927
    ],
    "cov_flat": [
      6.032067964042969e-05,
      5.20899480973521e-06,
      -9.043595281192222e-06,
      1.934682003909875e-06,
      -4.1498823214421437e-05,
      -1.394853944822111e-05,
      5.208994809737479e-06,
      5.782979339597966e-05,
      1.0219396111676762e-05,
      4.1990386761160454e-05,
      -7.407778311862459e-06,
      1.292492527380291e-05,
      -9.043595281191647e-06,
      1.0219396111676673e-05,
      9.152406844271346e-06,
      8.90082908112804e-06,
      5.065341596729834e-06,
      5.049189637473812e-06,
      1.9346820039115196e-06,
      4.199038676116043e-05,
      8.900829081128105e-06,
      3.0826118779092606e-05,
      -4.134915744025222e-06,
      9.66355282096747e-06,
      -4.1498823214421755e-05,
      -7.407778311860891e-06,
      5.065341596730251e-06,
      -4.134915744024082e-06,
      2.9100059333206052e-05,
      7.803548217326739e-06,
      -1.3948539448220054e-05,
      1.2924925273803489e-05,
      5.049189637473891e-06,
      9.66355282096788e-06,
      7.80354821732593e-06,
      9.567364587885711e-06
    ],
    "d2_total": 897.7059115967838,
    "d2_per_axis": [
      0.0005375756338495928,
      0.004207830962685136,
      0.08730671279254443,
      0.15750175565118246,
      0.46812327138127124,
      0.005101211638516592
    ],
    "convergence": 1,
    "iterations": 1,
    "final_per_corner_d2": [
      0.0468418830472929,
      0.04153705448596383,
      0.043007921561149694,
      0.04906861902062505
    ],
    "final_per_corner_irls_weight": [
      1.0,
      1.0,
      1.0,
      1.0
    ],
    "gt_corners_px": [
      [
        791.4379492048453,
        239.70210188172894
      ],
      [
        768.8478886199997,
        63.21044567361912
      ],
      [
        916.7364035607187,
        38.02161653659988
      ],
      [
        930.090554958838,
        205.79683038950424
      ]
    ],
    "corner_residuals_px": [
      [
        -0.19447996656401756,
        -0.01380842469768595
      ],
      [
        -0.03020063171845777,
        -0.06703212991794771
      ],
      [
        0.4605568885000366,
        0.009946268575902195
      ],
      [
        -0.08805251743171993,
        0.06339910268326321
      ]
    ],
    "corner_residual_norms_px": [
      0.1949695616945708,
      0.07352132070039641,
      0.4606642766738258,
      0.10850203706431642
    ],
    "d2_gt_corners": 6.482155391530454e-25
  },
  {
    "scene_id": "scene_0016_cam_0000",
    "tag_id": 489,
    "delta_se3": [
      0.0009836436817549279,
      -0.0003097900277257018,
      0.0018626850421933462,
      0.0015321481421320515,
      -7.436408806768263e-05,
      -0.0005221717787251067
    ],
    "cov_flat": [
      8.916734172703578e-05,
      3.5286690208404956e-06,
      3.6616153063059073e-06,
      3.0669044041057674e-06,
      -5.792603915933184e-05,
      -2.402463536314703e-05,
      3.528669020839805e-06,
      9.874147060945509e-05,
      -7.679207090347067e-06,
      6.589201585429844e-05,
      -1.7968979017313376e-06,
      -1.9925658616899743e-06,
      3.6616153063060064e-06,
      -7.679207090345776e-06,
      7.1031031763792e-06,
      -4.3580476361606415e-06,
      -2.491787823734199e-06,
      -9.492729064710454e-07,
      3.066904404105317e-06,
      6.589201585429859e-05,
      -4.358047636161515e-06,
      4.407918442323593e-05,
      -1.6606971483631769e-06,
      -1.5840614071302384e-06,
      -5.7926039159331784e-05,
      -1.7968979017317952e-06,
      -2.491787823734137e-06,
      -1.6606971483634755e-06,
      3.773619364781227e-05,
      1.509439416325878e-05,
      -2.4024635363147215e-05,
      -1.9925658616902018e-06,
      -9.492729064710098e-07,
      -1.584061407130387e-06,
      1.5094394163258912e-05,
      9.51588877198899e-06
    ],
    "d2_total": 160.27359251746438,
    "d2_per_axis": [
      0.010851000757859585,
      0.0009719306456136718,
      0.48846194124684683,
      0.05325592930438264,
      0.0001465441280524767,
      0.028653483981396975
    ],
    "convergence": 1,
    "iterations": 1,
    "final_per_corner_d2": [
      0.03642198744189136,
      0.03423670160679361,
      0.023390729976396015,
      0.025362524425388985
    ],
    "final_per_corner_irls_weight": [
      1.0,
      1.0,
      1.0,
      1.0
    ],
    "gt_corners_px": [
      [
        1044.9302301396237,
        291.5612015043945
      ],
      [
        974.2387519725495,
        407.7925808605976
      ],
      [
        841.2097726518869,
        346.70196394191265
      ],
      [
        905.1947274115726,
        223.28000473878836
      ]
    ],
    "corner_residuals_px": [
      [
        -0.18364810837374534,
        -0.004286221191364348
      ],
      [
        -0.07029494129949398,
        -0.0013210949725817045
      ],
      [
        0.14758818795689876,
        -0.09231428370952699
      ],
      [
        -0.045740595166307685,
        0.17633986570382376
      ]
    ],
    "corner_residual_norms_px": [
      0.18369812029891927,
      0.07030735426842548,
      0.17408101619994043,
      0.182175602874289
    ],
    "d2_gt_corners": 2.1765514667709367e-25
  },
  {
    "scene_id": "scene_0017_cam_0000",
    "tag_id": 428,
    "delta_se3": [
      4.861713408624765e-05,
      2.0334965546967486e-05,
      5.050423039414733e-05,
      -0.000649364412521498,
      -0.00026304685000114376,
      0.0005520936334356623
    ],
    "cov_flat": [
      4.089372025300172e-06,
      1.2398096582656663e-07,
      1.5733833677302669e-06,
      4.912573158233231e-07,
      -5.63179586174998e-06,
      -1.1665764108146644e-06,
      1.2398096582656692e-07,
      4.159059979609022e-06,
      -6.119666131481324e-07,
      5.391225390654177e-06,
      1.0054719191847196e-07,
      6.636687236465867e-07,
      1.5733833677302662e-06,
      -6.119666131481339e-07,
      1.3277834690222868e-06,
      -6.211618663588156e-07,
      -2.4234924782425786e-06,
      -6.07712190715119e-07,
      4.912573158233239e-07,
      5.391225390654176e-06,
      -6.211618663588134e-07,
      7.098145498523589e-06,
      -3.319723783966156e-07,
      5.297599209310984e-07,
      -5.631795861749981e-06,
      1.0054719191847295e-07,
      -2.423492478242579e-06,
      -3.3197237839661367e-07,
      7.864617158443172e-06,
      1.6383193848528104e-06,
      -1.1665764108146648e-06,
      6.63668723646587e-07,
      -6.07712190715119e-07,
      5.297599209310989e-07,
      1.6383193848528104e-06,
      1.322708698386675e-06
    ],
    "d2_total": 17.185744028328624,
    "d2_per_axis": [
      0.0005779923450683571,
      9.942410684715042e-05,
      0.0019210039492232166,
      0.05940624073387877,
      0.008798094541860872,
      0.23044180510188603
    ],
    "convergence": 1,
    "iterations": 1,
    "final_per_corner_d2": [
      0.021684656400026283,
      0.04661080569630738,
      0.055428740544728274,
      0.012184213284262654
    ],
    "final_per_corner_irls_weight": [
      1.0,
      1.0,
      1.0,
      1.0
    ],
    "gt_corners_px": [
      [
        764.4974638137946,
        428.3464459147493
      ],
      [
        733.2921651407496,
        683.1078507401937
      ],
      [
        469.39203838937755,
        609.16485247493
      ],
      [
        471.06572066366056,
        351.8252817389599
      ]
    ],
    "corner_residuals_px": [
      [
        0.018222221361611446,
        0.0952044758756756
      ],
      [
        0.03168739831289713,
        0.01403646683752413
      ],
      [
        -0.16715435617442154,
        -0.09685931086744404
      ],
      [
        0.04655350626131849,
        0.054936766899459144
      ]
    ],
    "corner_residual_norms_px": [
      0.09693266517595431,
      0.03465708604486405,
      0.19318981569896881,
      0.07200886961054262
    ],
    "d2_gt_corners": 1.8744006503423154e-25
  },
  {
    "scene_id": "scene_0018_cam_0000",
    "tag_id": 306,
    "delta_se3": [
      4.474494685045162e-05,
      0.0001134482542342339,
      -0.00027439307464376117,
      0.004382156986215337,
      0.004497559409850422,
      0.0010536512160244204
    ],
    "cov_flat": [
      4.091968923896967e-05,
      -1.0778322985509714e-06,
      5.860405566175588e-06,
      -3.17112005012865e-06,
      -4.360058282636368e-05,
      1.586222626699857e-05,
      -1.0778322985509246e-06,
      4.493801698682996e-05,
      -6.5492803280832844e-06,
      5.0686455693639394e-05,
      8.74859763320666e-07,
      3.3732436974152035e-07,
      5.860405566175582e-06,
      -6.54928032808329e-06,
      2.581293941229007e-06,
      -7.896840930934323e-06,
      -6.275408161700411e-06,
      2.185991659614951e-06,
      -3.171120050128605e-06,
      5.06864556936394e-05,
      -7.896840930934318e-06,
      5.735338932026085e-05,
      3.0705129344339208e-06,
      -4.629178089977248e-07,
      -4.360058282636365e-05,
      8.748597633207139e-07,
      -6.275408161700414e-06,
      3.0705129344339652e-06,
      4.654138146094325e-05,
      -1.666884199214054e-05,
      1.5862226266998663e-05,
      3.3732436974150193e-07,
      2.1859916596149652e-06,
      -4.6291780899774664e-07,
      -1.6668841992140642e-05,
      7.128432517664758e-06
    ],
    "d2_total": 2289.549385605526,
    "d2_per_axis": [
      4.8927797495173544e-05,
      0.00028640574844607285,
      0.029168146335402944,
      0.33482415040207675,
      0.43462484374489635,
      0.15573983232339417
    ],
    "convergence": 1,
    "iterations": 1,
    "final_per_corner_d2": [
      0.08664713429830442,
      0.01624473618110093,
      0.07868105175800734,
      0.159736155301615
    ],
    "final_per_corner_irls_weight": [
      1.0,
      1.0,
      1.0,
      1.0
    ],
    "gt_corners_px": [
      [
        842.1285181091368,
        709.6770875501967
      ],
      [
        1024.8521471477804,
        871.0783786241732
      ],
      [
        846.7747288764807,
        1075.1440146730365
      ],
      [
        664.7646063633647,
        892.7082502884815
      ]
    ],
    "corner_residuals_px": [
      [
        -0.02561283569934858,
        0.09012436386581157
      ],
      [
        -0.05026726496794254,
        -0.009347862454433198
      ],
      [
        -0.3330784858557081,
        0.2828652097759914
      ],
      [
        0.1627618006978082,
        -0.0021956009815085054
      ]
    ],
    "corner_residual_norms_px": [
      0.09369321381390985,
      0.051129056903333796,
      0.43698284250247943,
      0.1627766089770365
    ],
    "d2_gt_corners": 7.022770012454107e-26
  },
  {
    "scene_id": "scene_0019_cam_0000",
    "tag_id": 319,
    "delta_se3": [
      0.00028826110180783267,
      0.000596929112257905,
      -0.000348435642342216,
      0.00027162660937527183,
      0.0005733304165725217,
      0.0014876186178167396
    ],
    "cov_flat": [
      2.5287677380951034e-05,
      1.6672534180478077e-06,
      -1.1231618844050549e-06,
      2.1727251788698482e-06,
      -1.711765347345689e-05,
      4.564377511230284e-06,
      1.6672534180477129e-06,
      2.6154204393147753e-05,
      5.835578636212085e-06,
      1.7317662600016193e-05,
      -2.7572110057200966e-07,
      -5.030233811803106e-06,
      -1.1231618844050534e-06,
      5.835578636212077e-06,
      1.032939798251111e-05,
      3.5957952973328434e-06,
      2.3286498665727534e-06,
      -1.6603095835514912e-06,
      2.1727251788697872e-06,
      1.7317662600016217e-05,
      3.5957952973328523e-06,
      1.1749297238409157e-05,
      -9.183071282059144e-07,
      -2.1768516733320083e-06,
      -1.711765347345689e-05,
      -2.7572110057207256e-07,
      2.3286498665727547e-06,
      -9.183071282059554e-07,
      1.1847009818328674e-05,
      -3.207695241538368e-06,
      4.564377511230312e-06,
      -5.030233811803007e-06,
      -1.660309583551476e-06,
      -2.1768516733319384e-06,
      -3.207695241538384e-06,
      6.089591345520483e-06
    ],
    "d2_total": 46.83639069208016,
    "d2_per_axis": [
      0.0032859665822081363,
      0.013623980286487529,
      0.011753579159210414,
      0.0062796108927699905,
      0.02774605335927661,
      0.3634084828537602
    ],
    "convergence": 1,
    "iterations": 1,
    "final_per_corner_d2": [
      0.17415808478069372,
      0.07301895449120416,
      0.08741960504553013,
      0.08443649366643874
    ],
    "final_per_corner_irls_weight": [
      1.0,
      1.0,
      1.0,
      1.0
    ],
    "gt_corners_px": [
      [
        1213.5900581648912,
        545.7046238491655
      ],
      [
        1348.4414835684152,
        506.01186051484115
      ],
      [
        1325.1732672966891,
        606.9138576295273
      ],
      [
        1180.9780743174647,
        643.0006157218476
      ]
    ],
    "corner_residuals_px": [
      [
        0.22854535073383886,
        -0.17050519682175036
      ],
      [
        0.02433674408484876,
        0.06656966094010386
      ],
      [
        -0.030933312314118666,
        0.0761936400039076
      ],
      [
        -0.17179990340218865,
        0.15825878987118358
      ]
    ],
    "corner_residual_norms_px": [
      0.28514031543308155,
      0.07087874766339915,
      0.08223345175637391,
      0.23358307169076442
    ],
    "d2_gt_corners": 1.375394708644406e-25
  },
  {
    "scene_id": "scene_0020_cam_0000",
    "tag_id": 579,
    "delta_se3": [
      7.599088751492956e-05,
      -2.9545505392937518e-05,
      0.00036290082541527924,
      -0.00039992757864060733,
      -0.0007047523797465812,
      3.427778316634173e-05
    ],
    "cov_flat": [
      2.020949735532234e-05,
      2.1550233317759264e-06,
      6.731076750326657e-06,
      3.875222769396197e-06,
      -2.8448125183504295e-05,
      -2.39710005175359e-06,
      2.1550233317752776e-06,
      2.9519524970433318e-05,
      -1.4248156129656288e-06,
      3.7664782930286904e-05,
      -2.0921627135185013e-06,
      1.1840740112457957e-05,
      6.731076750326706e-06,
      -1.4248156129654011e-06,
      2.8312439433091526e-06,
      -1.414546256064582e-06,
      -9.73587955052012e-06,
      -1.7000495784649593e-06,
      3.8752227693953735e-06,
      3.766478293028698e-05,
      -1.4145462560648764e-06,
      4.820811520740237e-05,
      -4.261769424732288e-06,
      1.4716223103151424e-05,
      -2.8448125183504312e-05,
      -2.092162713519419e-06,
      -9.735879550520059e-06,
      -4.261769424733455e-06,
      4.0175883527343966e-05,
      3.75683267456495e-06,
      -2.3971000517538654e-06,
      1.184074011245775e-05,
      -1.700049578465041e-06,
      1.4716223103151135e-05,
      3.7568326745653326e-06,
      5.916004228911671e-06
    ],
    "d2_total": 20.369060682941715,
    "d2_per_axis": [
      0.00028573768480124435,
      2.9571508681065544e-05,
      0.046515599405808794,
      0.003317741576687487,
      0.01236253874592275,
      0.0001986081100241018
    ],
    "convergence": 1,
    "iterations": 1,
    "final_per_corner_d2": [
      0.001667448047257744,
      0.0009115670473191325,
      1.9425807690474115e-05,
      0.0005870040752838342
    ],
    "final_per_corner_irls_weight": [
      1.0,
      1.0,
      1.0,
      1.0
    ],
    "gt_corners_px": [
      [
        729.0095303841179,
        463.7327733959563
      ],
      [
        574.7987023859628,
        719.7932118827355
      ],
      [
        281.8134447917665,
        579.5717700268767
      ],
      [
        446.67843177901295,
        301.1600251227744
      ]
    ],
    "corner_residuals_px": [
      [
        -0.09339268880535201,
        0.046553996621810256
      ],
      [
        -0.05871215158776977,
        -0.12914938273547705
      ],
      [
        0.1207287922178466,
        -0.032524421407970294
      ],
      [
        0.022618025674546516,
        0.14826345144433617
      ]
    ],
    "corner_residual_norms_px": [
      0.10435261819310929,
      0.1418685300023229,
      0.12503311264742317,
      0.14997875222711207
    ],
    "d2_gt_corners": 1.8375289721055462e-25
  },
  {
    "scene_id": "scene_0021_cam_0000",
    "tag_id": 372,
    "delta_se3": [
      -0.007360590920710854,
      -0.00010203613746489213,
      0.004880009573842535,
      -0.0006667703999214947,
      0.000623248533131258,
      0.003912194575118599
    ],
    "cov_flat": [
      0.00022848467357714495,
      1.4757696077052687e-05,
      -6.14947021604432e-06,
      1.3509037179813833e-05,
      -7.733887781324837e-05,
      -2.0989615646556086e-05,
      1.475769607705451e-05,
      0.00021963071039184754,
      -3.928627667767488e-05,
      6.833767218950826e-05,
      -3.418870727358037e-08,
      4.880046072489181e-05,
      -6.1494702160610945e-06,
      -3.928627667767616e-05,
      8.043570913739628e-05,
      -1.0701623466309222e-05,
      -9.502350285482164e-06,
      -9.875660021648702e-06,
      1.3509037179814192e-05,
      6.833767218950961e-05,
      -1.0701623466308397e-05,
      2.3505053348281758e-05,
      -3.112282077423573e-06,
      9.845759677515228e-06,
      -7.733887781324592e-05,
      -3.4188707272630926e-08,
      -9.502350285487932e-06,
      -3.112282077423281e-06,
      2.788057403408676e-05,
      8.058237398133447e-06,
      -2.0989615646555737e-05,
      4.880046072488857e-05,
      -9.875660021649637e-06,
      9.84575967751389e-06,
      8.058237398133446e-06,
      2.3775563997012902e-05
    ],
    "d2_total": 141.84409619689535,
    "d2_per_axis": [
      0.23712005647397807,
      4.740399614507107e-05,
      0.29606867019865607,
      0.018914348315825856,
      0.013932235884934075,
      0.6437393617880237
    ],
    "convergence": 1,
    "iterations": 1,
    "final_per_corner_d2": [
      0.07292637271752558,
      0.03630140944232965,
      0.06584045428245071,
      0.08582719372771591
    ],
    "final_per_corner_irls_weight": [
      1.0,
      1.0,
      1.0,
      1.0
    ],
    "gt_corners_px": [
      [
        365.1918706757277,
        529.2985323555508
      ],
      [
        332.3564389380829,
        489.83577120735015
      ],
      [
        414.8214812159222,
        439.20422076987137
      ],
      [
        442.35580433638654,
        480.81956750719957
      ]
    ],
    "corner_residuals_px": [
      [
        -0.28247736518085276,
        -0.07898889851958302
      ],
      [
        0.2558962669952507,
        -0.25801241828764887
      ],
      [
        0.04378367665594851,
        0.2615385074723804
      ],
      [
        -0.26214588912091585,
        0.07838171155043483
      ]
    ],
    "corner_residual_norms_px": [
      0.29331332722679654,
      0.3633913970538451,
      0.26517805571425596,
      0.27361315737473424
    ],
    "d2_gt_corners": 2.1665444673784822e-24
  },
  {
    "scene_id": "scene_0022_cam_0000",
    "tag_id": 190,
    "delta_se3": [
      -0.0009273012338389078,
      0.0007305871126712433,
      0.0009239761356589749,
      -0.000801635151176109,
      0.0003512856729484294,
      -0.00036841968648256294
    ],
    "cov_flat": [
      8.795198967097565e-06,
      -6.704769054408718e-07,
      2.754499481796928e-06,
      1.9813885387815534e-07,
      -7.846077611343637e-06,
      -2.714144261548617e-06,
      -6.704769054408112e-07,
      1.1026061871418952e-05,
      -4.829803289261339e-07,
      9.570325651136101e-06,
      8.981519594567118e-07,
      1.6711977806402089e-06,
      2.7544994817969417e-06,
      -4.829803289261473e-07,
      2.936816812290148e-06,
      1.6262584482057966e-07,
      -2.96018281849817e-06,
      -9.771987487103803e-07,
      1.9813885387820876e-07,
      9.570325651136077e-06,
      1.626258448205912e-07,
      8.563766880079214e-06,
      7.684467580634546e-08,
      7.915100264535995e-07,
      -7.846077611343642e-06,
      8.981519594567525e-07,
      -2.9601828184981597e-06,
      7.68446758063819e-08,
      7.1809132005835e-06,
      2.2355434151782137e-06,
      -2.714144261548603e-06,
      1.6711977806402936e-06,
      -9.771987487103757e-07,
      7.915100264536771e-07,
      2.235543415178204e-06,
      2.459017400310508e-06
    ],
    "d2_total": 243.16874393826703,
    "d2_per_axis": [
      0.09776783691829607,
      0.048408718854088414,
      0.29069974528017867,
      0.07503928173196595,
      0.017184670051269196,
      0.055198090656361574
    ],
    "convergence": 1,
    "iterations": 1,
    "final_per_corner_d2": [
      0.001627468385652184,
      0.0038849432368624234,
      0.004506344834054805,
      0.011227094537737181
    ],
    "final_per_corner_irls_weight": [
      1.0,
      1.0,
      1.0,
      1.0
    ],
    "gt_corners_px": [
      [
        455.58717267643664,
        274.1859332117353
      ],
      [
        620.5229363935961,
        215.56586785396547
      ],
      [
        746.0268615221681,
        355.14353264692426
      ],
      [
        590.30249703141,
        399.8699858395083
      ]
    ],
    "corner_residuals_px": [
      [
        0.16630632746961282,
        0.022440811702210794
      ],
      [
        -0.11064391312731914,
        0.11974005619077843
      ],
      [
        -0.275518748730633,
        0.020804511278868176
      ],
      [
        0.04845511702751537,
        -0.02812792935202424
      ]
    ],
    "corner_residual_norms_px": [
      0.1678135411290882,
      0.1630329922705724,
      0.27630310999271473,
      0.056027482325932486
    ],
    "d2_gt_corners": 2.5386376907352395e-25
  },
  {
    "scene_id": "scene_0023_cam_0000",
    "tag_id": 283,
    "delta_se3": [
      -0.00616097077008169,
      -0.0006673142569834721,
      -0.0049687997591326295,
      0.0021541850196695835,
      -0.0007778555293607227,
      -0.004759788916155697
    ],
    "cov_flat": [
      0.0011448894249620285,
      -2.677894058991413e-05,
      0.0005274500179232506,
      -1.187105290940418e-05,
      -0.00032404496386952516,
      3.3346213611437704e-05,
      -2.6778940589942447e-05,
      0.00130338193668804,
      0.00012693519857842587,
      0.00036213778241166465,
      2.4698465207320434e-06,
      -6.242013742675546e-05,
      0.0005274500179232071,
      0.0001269351985784387,
      0.0007342676748377729,
      3.343629181846671e-05,
      -0.00016896242367177864,
      1.0964467011080563e-05,
      -1.1871052909412007e-05,
      0.0003621377824116618,
      3.343629181846271e-05,
      0.00010132953094255056,
      1.9516000999598587e-06,
      -2.1913006497960215e-05,
      -0.00032404496386952337,
      2.4698465207239597e-06,
      -0.0001689624236717901,
      1.9516000999576077e-06,
      9.252382959289172e-05,
      -9.414570755004053e-06,
      3.3346213611438456e-05,
      -6.242013742673658e-05,
      1.0964467011084064e-05,
      -2.191300649795511e-05,
      -9.41457075500439e-06,
      3.3208056308835705e-05
    ],
    "d2_total": 504.00775273986136,
    "d2_per_axis": [
      0.03315390989052055,
      0.0003416560449694082,
      0.033623938370719086,
      0.04579625560094434,
      0.006539496119208783,
      0.6822317547182257
    ],
    "convergence": 1,
    "iterations": 1,
    "final_per_corner_d2": [
      0.036328936404719056,
      0.03389698330370801,
      0.026709851389957445,
      0.027541901875548832
    ],
    "final_per_corner_irls_weight": [
      1.0,
      1.0,
      1.0,
      1.0
    ],
    "gt_corners_px": [
      [
        763.2343479962686,
        568.6343976312805
      ],
      [
        726.1242078224404,
        563.1254515998421
      ],
      [
        740.1403720284292,
        506.6183571369316
      ],
      [
        777.4668533401215,
        510.42195428264654
      ]
    ],
    "corner_residuals_px": [
      [
        0.13149673029386122,
        -0.05767643987428528
      ],
      [
        -0.10974249040918949,
        0.1275391228141416
      ],
      [
        -0.047537555772919404,
        0.09328226736528222
      ],
      [
        -0.0415603713714745,
        -0.25096429241216356
      ]
    ],
    "corner_residual_norms_px": [
      0.14358956018648614,
      0.16825469398923687,
      0.10469670774991646,
      0.25438227244537465
    ],
    "d2_gt_corners": 2.513965370789395e-25
  },
  {
    "scene_id": "scene_0024_cam_0000",
    "tag_id": 211,
    "delta_se3": [
      -0.00015785311126179956,
      3.610750772609036e-05,
      0.0009087054251213174,
      -0.001114102991909326,
      -0.0029611091457747213,
      -0.00012237903734097443
    ],
    "cov_flat": [
      7.454116424329308e-05,
      -4.678423153517889e-06,
      -5.120967955115253e-06,
      -4.967940450294681e-06,
      -7.195781308538369e-05,
      -1.1631199585859352e-05,
      -4.67842315351908e-06,
      8.445767789506892e-05,
      5.721469146258102e-06,
      8.229034157028256e-05,
      3.179443029677404e-06,
      1.4435580816799988e-05,
      -5.120967955115297e-06,
      5.721469146257897e-06,
      2.2557985579165064e-06,
      5.775832060203459e-06,
      4.773557106262499e-06,
      1.6949561883538152e-06,
      -4.9679404502958384e-06,
      8.229034157028254e-05,
      5.775832060203658e-06,
      8.022220384554113e-05,
      3.492943243265558e-06,
      1.4050232380062754e-05,
      -7.195781308538368e-05,
      3.1794430296762657e-06,
      4.773557106262453e-06,
      3.492943243264451e-06,
      6.952662370122378e-05,
      1.084246463374369e-05,
      -1.1631199585859534e-05,
      1.4435580816799754e-05,
      1.6949561883538374e-06,
      1.405023238006253e-05,
      1.0842464633743868e-05,
      5.545076393261421e-06
    ],
    "d2_total": 605.8446772571023,
    "d2_per_axis": [
      0.0003342797900727994,
      1.543675065053849e-05,
      0.36605464913834623,
      0.015472343280061867,
      0.12611237115252535,
      0.002700887727841542
    ],
    "convergence": 1,
    "iterations": 1,
    "final_per_corner_d2": [
      0.048041081762830784,
      0.01963269935511211,
      0.05438157644581029,
      0.1094901712739665
    ],
    "final_per_corner_irls_weight": [
      1.0,
      1.0,
      1.0,
      1.0
    ],
    "gt_corners_px": [
      [
        940.3691539797603,
        542.5002717155193
      ],
      [
        751.0494226522528,
        449.45161578232614
      ],
      [
        851.0760902956652,
        249.3008049351822
      ],
      [
        1035.7510970914805,
        353.07998061628973
      ]
    ],
    "corner_residuals_px": [
      [
        -0.04994011257281272,
        -0.2179841178630113
      ],
      [
        -0.003463179596565169,
        -0.06648394638864374
      ],
      [
        -0.16611715113390346,
        0.04830089977872376
      ],
      [
        -0.06408537273046022,
        0.1343443348821438
      ]
    ],
    "corner_residual_norms_px": [
      0.2236315954517617,
      0.0665740845999862,
      0.17299677690719686,
      0.14884668391646358
    ],
    "d2_gt_corners": 1.6701123461122505e-25
  },
  {
    "scene_id": "scene_0025_cam_0000",
    "tag_id": 284,
    "delta_se3": [
      -0.00011083875094441601,
      -0.005093074254340298,
      -0.00468225312877323,
      -0.0038432510830218197,
      0.005799498292366789,
      0.0007658803596911746
    ],
    "cov_flat": [
      0.0005973630979175062,
      9.047309020151791e-08,
      -8.099200527006838e-05,
      -7.678938909638439e-07,
      -0.00019149570853718424,
      1.7610045363901176e-05,
      9.047309018807337e-08,
      0.0005445172472352396,
      -8.324039554382932e-07,
      0.00016603089327924523,
      2.902234582380572e-06,
      0.00010605585416532067,
      -8.099200527006019e-05,
      -8.324039554417584e-07,
      0.0001273685359711605,
      -1.942316823683697e-06,
      1.568023904561033e-05,
      -2.9192256299694902e-06,
      -7.678938909680135e-07,
      0.0001660308932792434,
      -1.942316823682603e-06,
      5.166202298857553e-05,
      1.1155175334041723e-06,
      2.8562149068483223e-05,
      -0.00019149570853718503,
      2.902234582376746e-06,
      1.5680239045613076e-05,
      1.1155175334029947e-06,
      6.236109292520748e-05,
      -4.347815011760517e-06,
      1.7610045363898316e-05,
      0.00010605585416532808,
      -2.919225629969089e-06,
      2.8562149068485842e-05,
      -4.347815011759631e-06,
      3.544872959345056e-05
    ],
    "d2_total": 1880.5673421347983,
    "d2_per_axis": [
      2.0565764362991887e-05,
      0.04763743571379985,
      0.17212645332494628,
      0.28590786873395835,
      0.5393455897815056,
      0.016547073254468813
    ],
    "convergence": 1,
    "iterations": 1,
    "final_per_corner_d2": [
      0.4661115637427272,
      0.30552482326183833,
      0.5587111097634474,
      0.5500485487035952
    ],
    "final_per_corner_irls_weight": [
      1.0,
      1.0,
      1.0,
      1.0
    ],
    "gt_corners_px": [
      [
        587.6648303761908,
        656.9718150739552
      ],
      [
        566.9987213748586,
        579.8457500417684
      ],
      [
        620.688499092267,
        568.7883262561293
      ],
      [
        640.3502403728428,
        642.1407311908099
      ]
    ],
    "corner_residuals_px": [
      [
        -0.622655083222071,
        0.05888560963853706
      ],
      [
        0.12585137904761723,
        -0.0695049245808832
      ],
      [
        0.04990422804553418,
        -0.28191756472301677
      ],
      [
        0.28464732246970925,
        0.23463502012759818
      ]
    ],
    "corner_residual_norms_px": [
      0.6254333439182678,
      0.1437689262294926,
      0.28630044581903297,
      0.36888709771345085
    ],
    "d2_gt_corners": 1.0865288676573189e-24
  },
  {
    "scene_id": "scene_0026_cam_0000",
    "tag_id": 543,
    "delta_se3": [
      0.0006651220434683261,
      -4.744545418262566e-05,
      -0.0031106505312449573,
      0.0007400139786291959,
      0.001229877104618715,
      0.0014298886575228231
    ],
    "cov_flat": [
      0.003948721842285646,
      -0.00013147621617921773,
      -0.001201508965462003,
      7.758231034478613e-05,
      -0.0015843577879326247,
      0.0004184683861468248,
      -0.00013147621617899503,
      0.004348187610555885,
      -0.00012780062216587515,
      0.0016160672252232746,
      3.1066426749934134e-05,
      -0.0005510360297677385,
      -0.0012015089654619547,
      -0.00012780062216576557,
      0.0004297672452572857,
      -8.967824815682284e-05,
      0.0004898074021452314,
      -0.0001074516402345904,
      7.758231034486622e-05,
      0.0016160672252232683,
      -8.967824815686443e-05,
      0.0006057134031921031,
      -3.926471715539184e-05,
      -0.00018944310246789964,
      -0.0015843577879326185,
      3.1066426750029917e-05,
      0.0004898074021452489,
      -3.9264717155357095e-05,
      0.0006368121747338067,
      -0.00016420171496745503,
      0.00041846838614679837,
      -0.0005510360297677528,
      -0.0001074516402345827,
      -0.0001894431024679054,
      -0.0001642017149674443,
      0.00011821965530065025
    ],
    "d2_total": 169.7989390607981,
    "d2_per_axis": [
      0.00011203304521733899,
      5.177033109451888e-07,
      0.02251485387571076,
      0.0009040920766828947,
      0.0023752650349337205,
      0.017294768519775707
    ],
    "convergence": 1,
    "iterations": 1,
    "final_per_corner_d2": [
      0.014638119139130708,
      0.023508471291109893,
      0.027739235468796624,
      0.011613745638634888
    ],
    "final_per_corner_irls_weight": [
      1.0,
      1.0,
      1.0,
      1.0
    ],
    "gt_corners_px": [
      [
        1466.228438328662,
        716.1658825503283
      ],
      [
        1452.6032887832816,
        806.7258463037281
      ],
      [
        1355.9270149480762,
        787.5547186789463
      ],
      [
        1371.0495239631455,
        699.4933931949358
      ]
    ],
    "corner_residuals_px": [
      [
        0.09883217915057685,
        -0.024342022984569667
      ],
      [
        -0.06105245515664137,
        0.15458582517817376
      ],
      [
        -0.1377083074512484,
        -0.11380071019630122
      ],
      [
        -0.012414588145475136,
        -0.06925989415458389
      ]
    ],
    "corner_residual_norms_px": [
      0.10178572453263295,
      0.166205233451509,
      0.17864540179436494,
      0.07036373310964915
    ],
    "d2_gt_corners": 1.526907093348272e-25
  },
  {
    "scene_id": "scene_0027_cam_0000",
    "tag_id": 537,
    "delta_se3": [
      0.00024523700933405245,
      0.00011344150705754371,
      0.00028774053003006214,
      6.44703658117824e-05,
      2.1215180383132967e-06,
      5.3861717351686934e-05
    ],
    "cov_flat": [
      1.3675065568732267e-06,
      -6.261722316053606e-08,
      -8.126229811083381e-08,
      -9.590451967868193e-09,
      -2.0448383522931984e-06,
      6.991099918808669e-07,
      -6.261722316053627e-08,
      1.5889042038328052e-06,
      2.395434061962129e-07,
      2.3661274748322556e-06,
      1.335833296409895e-07,
      -6.261814466592791e-07,
      -8.126229811083288e-08,
      2.3954340619621286e-07,
      2.785679744166887e-07,
      3.1557496044635693e-07,
      1.8580591782208852e-07,
      -1.3702521441671287e-07,
      -9.590451967868616e-09,
      2.366127474832256e-06,
      3.15574960446357e-07,
      3.563778849752399e-06,
      7.297245962848525e-08,
      -8.00015596375504e-07,
      -2.0448383522931976e-06,
      1.3358332964098913e-07,
      1.858059178220898e-07,
      7.297245962848463e-08,
      3.0924107611881885e-06,
      -1.0109727246258816e-06,
      6.991099918808679e-07,
      -6.261814466592792e-07,
      -1.3702521441671343e-07,
      -8.00015596375504e-07,
      -1.0109727246258837e-06,
      1.1867480733589112e-06
    ],
    "d2_total": 6.651827122288985,
    "d2_per_axis": [
      0.043978722035981764,
      0.008099277157454671,
      0.29721511525274946,
      0.0011662979783927435,
      1.4554466189864615e-06,
      0.002444566510111899
    ],
    "convergence": 1,
    "iterations": 1,
    "final_per_corner_d2": [
      0.01197341228106482,
      0.015408977656238743,
      0.05541568100039841,
      0.01560696230517267
    ],
    "final_per_corner_irls_weight": [
      1.0,
      1.0,
      1.0,
      1.0
    ],
    "gt_corners_px": [
      [
        1117.6865703203198,
        848.0893401908719
      ],
      [
        953.328190122058,
        622.3503234525302
      ],
      [
        1230.017575349062,
        498.28091951016205
      ],
      [
        1439.7304435396973,
        685.0347686799829
      ]
    ],
    "corner_residuals_px": [
      [
        -0.05485645313228815,
        -0.12644956587189427
      ],
      [
        0.1372029443482461,
        0.029681430282266774
      ],
      [
        -0.14574917718709912,
        0.1042123257754497
      ],
      [
        -0.17111736782226217,
        0.04317321454834655
      ]
    ],
    "corner_residual_norms_px": [
      0.13783585585559896,
      0.14037676175716898,
      0.1791731885474076,
      0.17647968728682892
    ],
    "d2_gt_corners": 1.4334975516862028e-25
  },
  {
    "scene_id": "scene_0028_cam_0000",
    "tag_id": 306,
    "delta_se3": [
      0.00020858610402353634,
      0.00015222816650888965,
      0.00030804632981288384,
      -0.00032090137677950816,
      -0.000293886269474553,
      0.000204944202347192
    ],
    "cov_flat": [
      2.7178467869826333e-06,
      4.0692225163619224e-08,
      9.227154772274991e-07,
      3.3493922978749936e-07,
      -3.93092891740993e-06,
      -1.0116672602697781e-06,
      4.0692225163638295e-08,
      2.5521857745203046e-06,
      8.093374440872376e-08,
      3.641153755254802e-06,
      4.5377979349237164e-08,
      1.3779629031696982e-09,
      9.227154772274996e-07,
      8.093374440871226e-08,
      6.741430008627854e-07,
      3.0145310506503024e-07,
      -1.4216159866454396e-06,
      -3.6904503727609323e-07,
      3.349392297875267e-07,
      3.641153755254799e-06,
      3.0145310506504665e-07,
      5.282180229473154e-06,
      -3.38492966507737e-07,
      -2.249365980474499e-07,
      -3.930928917409929e-06,
      4.5377979349266136e-08,
      -1.4216159866454383e-06,
      -3.3849296650769526e-07,
      5.744066882245361e-06,
      1.3639690856989218e-06,
      -1.0116672602697787e-06,
      1.377962903176931e-09,
      -3.690450372760933e-07,
      -2.249365980474396e-07,
      1.3639690856989229e-06,
      1.0191334268585999e-06
    ],
    "d2_total": 24.354291604272426,
    "d2_per_axis": [
      0.01600832063091404,
      0.009079830672990013,
      0.14076025589488006,
      0.019495301020664886,
      0.015036234980590583,
      0.041213569262657866
    ],
    "convergence": 1,
    "iterations": 1,
    "final_per_corner_d2": [
      0.0011063353721441497,
      0.0011113289807006697,
      0.000875379491720332,
      0.00027194710637246826
    ],
    "final_per_corner_irls_weight": [
      1.0,
      1.0,
      1.0,
      1.0
    ],
    "gt_corners_px": [
      [
        907.3715759992572,
        342.5171642329484
      ],
      [
        770.9551494990835,
        582.3087735608344
      ],
      [
        546.5833227286454,
        398.0918030253851
      ],
      [
        649.116000351087,
        142.49222500311225
      ]
    ],
    "corner_residuals_px": [
      [
        -0.12218635081967477,
        0.05195808150472203
      ],
      [
        -0.054880944396018094,
        -0.15948156864692464
      ],
      [
        0.059255396354615186,
        -0.06406254686947932
      ],
      [
        -0.02060240186824558,
        0.12679355157524697
      ]
    ],
    "corner_residual_norms_px": [
      0.13277479640458867,
      0.16866027628307315,
      0.0872651815362048,
      0.1284564661035228
    ],
    "d2_gt_corners": 1.7496226444696462e-25
  },
  {
    "scene_id": "scene_0029_cam_0000",
    "tag_id": 2,
    "delta_se3": [
      6.88671665202268e-06,
      -3.812975869794186e-05,
      0.00022585820362387262,
      0.0005574206337883995,
      -2.588010869892545e-05,
      6.585813225304534e-05
    ],
    "cov_flat": [
      4.312842705550511e-05,
      -8.576751380248726e-06,
      1.2562576689302045e-05,
      -7.585359978305646e-06,
      -5.249921829554618e-05,
      -1.094251971101754e-05,
      -8.576751380246932e-06,
      3.5259653912156576e-05,
      7.661904542788543e-06,
      3.901197116684685e-05,
      5.460610586242891e-06,
      1.901192434930262e-05,
      1.2562576689302593e-05,
      7.661904542787899e-06,
      7.375268745027956e-06,
      9.304244082282104e-06,
      -1.7096329569580025e-05,
      1.9398322273741943e-06,
      -7.585359978303635e-06,
      3.901197116684677e-05,
      9.304244082282798e-06,
      4.340279912318589e-05,
      3.6544772984149334e-06,
      2.0508239235913083e-05,
      -5.249921829554644e-05,
      5.460610586245135e-06,
      -1.709632956957944e-05,
      3.654477298417435e-06,
      6.48293614935524e-05,
      1.0664605758018177e-05,
      -1.0942519711016647e-05,
      1.901192434930289e-05,
      1.939832227374596e-06,
      2.050823923591343e-05,
      1.0664605758017023e-05,
      1.1828177642930115e-05
    ],
    "d2_total": 21.008450450852855,
    "d2_per_axis": [
      1.0996660319702684e-06,
      4.1233487486444525e-05,
      0.006916619571129858,
      0.007158933738148577,
      1.0331430247617195e-05,
      0.0003666916168148758
    ],
    "convergence": 1,
    "iterations": 1,
    "final_per_corner_d2": [
      0.0011346409203209734,
      0.00014663524170958715,
      0.0014114682885803223,
      0.0025748835391274233
    ],
    "final_per_corner_irls_weight": [
      1.0,
      1.0,
      1.0,
      1.0
    ],
    "gt_corners_px": [
      [
        328.97161356638924,
        26.401062998989346
      ],
      [
        605.5468916764246,
        173.0480122724631
      ],
      [
        497.73306097802055,
        421.49208457273033
      ],
      [
        202.40797951872173,
        295.4543090968167
      ]
    ],
    "corner_residuals_px": [
      [
        0.02731831837638765,
        0.03433128812002906
      ],
      [
        -0.027299391268343243,
        0.01772259081815264
      ],
      [
        -0.05688299950492137,
        -0.026294777808459457
      ],
      [
        0.06688925569233106,
        -0.03243409681670073
      ]
    ],
    "corner_residual_norms_px": [
      0.04387399985064192,
      0.03254761110941575,
      0.06266650598743428,
      0.07433803308797697
    ],
    "d2_gt_corners": 4.420928813293057e-26
  },
  {
    "scene_id": "scene_0030_cam_0000",
    "tag_id": 274,
    "delta_se3": [
      8.31853042922069e-06,
      -3.6061775525780887e-06,
      -8.104764448241175e-06,
      0.0007128655950291009,
      -0.0002498861090104964,
      -6.5817152002811464e-06
    ],
    "cov_flat": [
      2.9795172454387137e-05,
      3.0058894783826193e-07,
      7.927128603038568e-06,
      -3.2243528001272736e-07,
      -3.7800568596179225e-05,
      3.1893691980544136e-06,
      3.0058894783835045e-07,
      3.1287731773338404e-05,
      4.098906590095788e-06,
      3.775690510474133e-05,
      -1.4695826109354366e-06,
      7.307756419342706e-06,
      7.927128603038584e-06,
      4.098906590095759e-06,
      3.2781991525147357e-06,
      4.780673717624826e-06,
      -1.0381515569724675e-05,
      1.8039173615523428e-06,
      -3.2243528001262084e-07,
      3.7756905104741334e-05,
      4.780673717624862e-06,
      4.564290292733194e-05,
      -9.033076313707237e-07,
      8.549427760375578e-06,
      -3.780056859617924e-05,
      -1.4695826109353176e-06,
      -1.0381515569724663e-05,
      -9.033076313705799e-07,
      4.8064444975996106e-05,
      -4.3289943540792925e-06,
      3.1893691980544348e-06,
      7.307756419342698e-06,
      1.8039173615523489e-06,
      8.549427760375568e-06,
      -4.32899435407932e-06,
      2.9173637724142377e-06
    ],
    "d2_total": 31.184132791025114,
    "d2_per_axis": [
      2.3224550422658027e-06,
      4.156426753760332e-07,
      2.0037588842363295e-05,
      0.011133765032107251,
      0.0012991529915219121,
      1.4848671045833845e-05
    ],
    "convergence": 1,
    "iterations": 1,
    "final_per_corner_d2": [
      0.02504442933669794,
      0.0025038416189227157,
      0.016171070853068865,
      0.03792659047944379
    ],
    "final_per_corner_irls_weight": [
      1.0,
      1.0,
      1.0,
      1.0
    ],
    "gt_corners_px": [
      [
        690.0721976725126,
        700.000968977746
      ],
      [
        448.9571836324809,
        546.3378777735178
      ],
      [
        615.2407180097181,
        323.5331951185366
      ],
      [
        844.4755109763576,
        470.1961113767127
      ]
    ],
    "corner_residuals_px": [
      [
        0.0073311360811203485,
        0.04047389334778018
      ],
      [
        -0.046111855137155544,
        -0.03142025398653914
      ],
      [
        0.042607185594420116,
        0.04090156115091759
      ],
      [
        -0.08067455057630468,
        -0.029180224368928975
      ]
    ],
    "corner_residual_norms_px": [
      0.041132488363426166,
      0.05579906401337433,
      0.05906191640016104,
      0.08578967656373218
    ],
    "d2_gt_corners": 1.2911068801597462e-25
  },
  {
    "scene_id": "scene_0031_cam_0000",
    "tag_id": 160,
    "delta_se3": [
      2.3193475893800773e-05,
      0.00038169553217626577,
      -0.000803819970646397,
      0.0009064953445766144,
      -0.003331483118020906,
      -0.0001326189253387109
    ],
    "cov_flat": [
      0.0002526906043426066,
      -9.148515687099154e-06,
      2.143921264615229e-05,
      -2.035155881618883e-06,
      -0.0001488293762874812,
      -1.0939289487613739e-05,
      -9.148515687088254e-06,
      0.00021406444068229667,
      9.85697460842725e-05,
      0.00013479202595690715,
      8.7866973991868e-06,
      -1.2790721426562018e-05,
      2.143921264615764e-05,
      9.856974608426555e-05,
      6.478676232575456e-05,
      6.492538397650376e-05,
      -1.0996685058047813e-05,
      -7.3260055158639825e-06,
      -2.0351558816119707e-06,
      0.0001347920259569061,
      6.492538397650766e-05,
      8.531507897659557e-05,
      3.351114825344712e-06,
      -8.274260880400069e-06,
      -0.00014882937628748086,
      8.786697399193177e-06,
      -1.0996685058044556e-05,
      3.351114825348775e-06,
      8.803628801081581e-05,
      5.064911767521756e-06,
      -1.0939289487615101e-05,
      -1.2790721426561395e-05,
      -7.326005515864179e-06,
      -8.274260880399747e-06,
      5.064911767522572e-06,
      5.775479990636488e-06
    ],
    "d2_total": 578.8423373161485,
    "d2_per_axis": [
      2.1288378546396748e-06,
      0.0006805963606984612,
      0.009973126021658302,
      0.009631753490663714,
      0.1260705104274131,
      0.003045249812398071
    ],
    "convergence": 1,
    "iterations": 1,
    "final_per_corner_d2": [
      0.18315976053048666,
      0.21323594922379727,
      0.12723208513293519,
      0.12745959549945704
    ],
    "final_per_corner_irls_weight": [
      1.0,
      1.0,
      1.0,
      1.0
    ],
    "gt_corners_px": [
      [
        881.4094401347218,
        146.09410346933538
      ],
      [
        1003.4003354346255,
        97.69994775352018
      ],
      [
        1044.6882225564393,
        214.3462223698382
      ],
      [
        919.8651615819208,
        262.16995728564507
      ]
    ],
    "corner_residuals_px": [
      [
        -0.25972089644051266,
        -0.03485359140569244
      ],
      [
        0.2062929833432463,
        -0.033413329692052685
      ],
      [
        -0.06310048612681385,
        0.17130997879462484
      ],
      [
        0.05866654307919816,
        -0.07834351611381862
      ]
    ],
    "corner_residual_norms_px": [
      0.2620490734227818,
      0.20898144792724235,
      0.18256171609637942,
      0.09787476586914307
    ],
    "d2_gt_corners": 1.4068750178350995e-25
  },
  {
    "scene_id": "scene_0032_cam_0000",
    "tag_id": 544,
    "delta_se3": [
      0.0001834129236874252,
      -8.01663200113056e-05,
      -0.0001293694422267172,
      0.00020488502175814756,
      2.8620504843755247e-05,
      6.707150563610264e-05
    ],
    "cov_flat": [
      1.724451533037835e-06,
      -1.2281348056083827e-07,
      4.4128918672862204e-07,
      -1.5666587086769617e-07,
      -2.443802620848926e-06,
      -1.684793696700986e-07,
      -1.228134805608379e-07,
      1.8115021626508645e-06,
      -7.828994516372426e-08,
      2.5527549398447994e-06,
      2.2067426334706498e-07,
      -7.861507086835382e-07,
      4.4128918672862194e-07,
      -7.828994516372434e-08,
      5.822807542309268e-07,
      -7.280035455965319e-08,
      -6.076859636907861e-07,
      -3.128290375118589e-08,
      -1.5666587086769567e-07,
      2.5527549398448002e-06,
      -7.280035455965307e-08,
      3.6192125253479006e-06,
      2.8830786743157764e-07,
      -1.090476780565528e-06,
      -2.443802620848925e-06,
      2.2067426334706546e-07,
      -6.076859636907861e-07,
      2.8830786743157833e-07,
      3.4866430942227303e-06,
      1.7085000841921466e-07,
      -1.6847936967009872e-07,
      -7.861507086835382e-07,
      -3.128290375118595e-08,
      -1.0904767805655277e-06,
      1.708500084192149e-07,
      1.3657532010055846e-06
    ],
    "d2_total": 10.358450211612556,
    "d2_per_axis": [
      0.019507826071694635,
      0.003547684897461356,
      0.028742925917510924,
      0.011598620375796094,
      0.00023493465645184575,
      0.003293850503137392
    ],
    "convergence": 1,
    "iterations": 1,
    "final_per_corner_d2": [
      0.022513398764227747,
      0.01710863568243861,
      0.023067022997072063,
      0.06787279519788292
    ],
    "final_per_corner_irls_weight": [
      1.0,
      1.0,
      1.0,
      1.0
    ],
    "gt_corners_px": [
      [
        862.800164011223,
        325.64129454573606
      ],
      [
        1080.5279846157148,
        344.1833431827496
      ],
      [
        1122.1135148784147,
        663.5485785883056
      ],
      [
        913.7530332183035,
        598.6606453908856
      ]
    ],
    "corner_residuals_px": [
      [
        0.0057441919019538545,
        -0.029233998861059263
      ],
      [
        0.018768313972714168,
        -0.0887692081402065
      ],
      [
        0.13856031689783777,
        0.0788017827881049
      ],
      [
        -0.048992690959721585,
        -0.09143152369813379
      ]
    ],
    "corner_residual_norms_px": [
      0.029792992968395885,
      0.09073159275146493,
      0.1594010112559293,
      0.10373045499387913
    ],
    "d2_gt_corners": 2.02215988093848e-24
  },
  {
    "scene_id": "scene_0033_cam_0000",
    "tag_id": 81,
    "delta_se3": [
      -0.0005879807712466778,
      3.7924871586172076e-05,
      -0.0010363221434351619,
      -0.004477672694651215,
      0.0026747275501452844,
      0.0016087987012284358
    ],
    "cov_flat": [
      0.00022156361421000114,
      -2.0395249890370248e-05,
      -8.607645982318694e-05,
      -1.4956430193734554e-06,
      -0.00012399200291777593,
      2.372548090364083e-05,
      -2.0395249890382736e-05,
      0.00024347392535133336,
      -5.1349656584985504e-05,
      0.00013826096545637567,
      1.2933132938801565e-05,
      7.768695646008034e-06,
      -8.607645982318315e-05,
      -5.1349656584994e-05,
      6.9834891013051e-05,
      -3.586537749763524e-05,
      4.957737432685067e-05,
      -1.2234942125771347e-05,
      -1.4956430193808163e-06,
      0.0001382609654563766,
      -3.586537749763055e-05,
      7.943561228748954e-05,
      1.6799270908696197e-06,
      6.446757028477128e-06,
      -0.00012399200291777612,
      1.2933132938794211e-05,
      4.957737432685298e-05,
      1.6799270908652797e-06,
      6.97961607981683e-05,
      -1.2166910234679768e-05,
      2.372548090363952e-05,
      7.768695646009149e-06,
      -1.2234942125770998e-05,
      6.446757028477714e-06,
      -1.2166910234679e-05,
      8.09258270395142e-06
    ],
    "d2_total": 1608.7734073769043,
    "d2_per_axis": [
      0.0015603707702121093,
      5.907391860348817e-06,
      0.015378610453810858,
      0.2524000531129879,
      0.10250087376860341,
      0.3198278418347863
    ],
    "convergence": 1,
    "iterations": 1,
    "final_per_corner_d2": [
      0.03551126590302327,
      0.06983520650083844,
      0.0799381882494869,
      0.057187321695698096
    ],
    "final_per_corner_irls_weight": [
      1.0,
      1.0,
      1.0,
      1.0
    ],
    "gt_corners_px": [
      [
        1137.3394537117586,
        774.5491678102649
      ],
      [
        1245.884432153489,
        776.127741542486
      ],
      [
        1249.3933396911632,
        900.3275968638407
      ],
      [
        1139.1433672284968,
        902.436757375146
      ]
    ],
    "corner_residuals_px": [
      [
        -0.18320371175855144,
        -0.017063318077362055
      ],
      [
        0.0838295652611123,
        0.013798984857771757
      ],
      [
        0.12814468383680833,
        0.3390901478780961
      ],
      [
        -0.040095744121799726,
        -0.07610063686479407
      ]
    ],
    "corner_residual_norms_px": [
      0.1839966217785523,
      0.0849576835546503,
      0.362495777056264,
      0.08601729842251551
    ],
    "d2_gt_corners": 1.4243032448152019e-25
  },
  {
    "scene_id": "scene_0034_cam_0000",
    "tag_id": 220,
    "delta_se3": [
      -8.671898152714685e-05,
      -2.6572380745829703e-05,
      -0.00016377748855664836,
      -0.0016735022180095454,
      -0.001064153908467824,
      0.0007242398272275249
    ],
    "cov_flat": [
      1.3005130141592208e-05,
      -7.919267629456962e-07,
      -3.011287352728704e-06,
      -1.6112499602401526e-07,
      -1.4118808686230169e-05,
      4.349290256359988e-06,
      -7.919267629457071e-07,
      1.3293476821064527e-05,
      1.0920676366344103e-06,
      1.4317415366178217e-05,
      1.1735259154354678e-06,
      -7.66732777776599e-07,
      -3.0112873527287174e-06,
      1.0920676366344088e-06,
      1.8138810362400372e-06,
      8.81906360335253e-07,
      3.4372198451002364e-06,
      -1.084492775353929e-06,
      -1.6112499602402497e-07,
      1.4317415366178219e-05,
      8.819063603352549e-07,
      1.551318610368851e-05,
      5.128721174611275e-07,
      -4.297350045971786e-07,
      -1.411880868623017e-05,
      1.173525915435456e-06,
      3.437219845100222e-06,
      5.12872117461117e-07,
      1.538759451938164e-05,
      -4.604663403646895e-06,
      4.34929025635999e-06,
      -7.667327777765957e-07,
      -1.084492775353925e-06,
      -4.297350045971756e-07,
      -4.604663403646896e-06,
      2.717203056482214e-06
    ],
    "d2_total": 255.48296419929034,
    "d2_per_axis": [
      0.00057824732818744,
      5.3115631674513134e-05,
      0.014787665355123925,
      0.18053091447262262,
      0.07359327927968125,
      0.19303795720796124
    ],
    "convergence": 1,
    "iterations": 1,
    "final_per_corner_d2": [
      0.0015309841362174043,
      0.0009740974901399587,
      0.0036887449769310134,
      0.002475169136674021
    ],
    "final_per_corner_irls_weight": [
      1.0,
      1.0,
      1.0,
      1.0
    ],
    "gt_corners_px": [
      [
        1020.9150003258694,
        786.8822989793786
      ],
      [
        1055.9341494014493,
        568.5499248758895
      ],
      [
        1279.0354054570232,
        625.9728317287111
      ],
      [
        1266.4004337441743,
        846.7880660385205
      ]
    ],
    "corner_residuals_px": [
      [
        -0.09511507196316416,
        -0.06845620594106094
      ],
      [
        0.021539075113196304,
        0.0950336202042763
      ],
      [
        0.1440379023517835,
        0.032295224413928736
      ],
      [
        0.09651449801322087,
        0.019795289604530808
      ]
    ],
    "corner_residual_norms_px": [
      0.11718843392759733,
      0.09744393632167445,
      0.1476140197740307,
      0.09852361045592707
    ],
    "d2_gt_corners": 2.0235408000403817e-25
  },
  {
    "scene_id": "scene_0035_cam_0000",
    "tag_id": 123,
    "delta_se3": [
      0.00013296697776546916,
      -2.378076507712121e-05,
      0.00010530335812107719,
      3.852042644055095e-06,
      -0.0001406955285429183,
      -0.00040865563760661877
    ],
    "cov_flat": [
      7.802929870155353e-07,
      -8.259318348070801e-08,
      -2.38346747690156e-07,
      -9.852184148222067e-08,
      -1.2945920663860288e-06,
      2.1211253877963854e-07,
      -8.25931834807077e-08,
      9.317325153200937e-07,
      2.678471755132685e-08,
      1.5297750757903538e-06,
      1.8110884809267805e-07,
      1.2581483411693303e-07,
      -2.38346747690156e-07,
      2.678471755132698e-08,
      3.278291062047076e-07,
      -9.151396135788514e-09,
      4.4188181010543e-07,
      -7.811443956082626e-08,
      -9.852184148222014e-08,
      1.5297750757903538e-06,
      -9.151396135788705e-09,
      2.5452814736680066e-06,
      2.3570928566645607e-07,
      2.9348795900107687e-07,
      -1.294592066386029e-06,
      1.811088480926785e-07,
      4.4188181010543e-07,
      2.3570928566645678e-07,
      2.1802393206619078e-06,
      -2.885982377617428e-07,
      2.121125387796387e-07,
      1.25814834116932e-07,
      -7.811443956082626e-08,
      2.9348795900107517e-07,
      -2.88598237761743e-07,
      7.363699259669263e-07
    ],
    "d2_total": 1.596627553260229,
    "d2_per_axis": [
      0.022658434037330092,
      0.0006069604509390161,
      0.03382493202007394,
      5.829702013363411e-06,
      0.009079384801647106,
      0.2267874124929605
    ],
    "convergence": 1,
    "iterations": 1,
    "final_per_corner_d2": [
      0.011635992186657453,
      0.05737077466029872,
      0.017005522332988143,
      0.012028117495890576
    ],
    "final_per_corner_irls_weight": [
      1.0,
      1.0,
      1.0,
      1.0
    ],
    "gt_corners_px": [
      [
        976.7193951552589,
        499.9957767740071
      ],
      [
        1213.6953476976291,
        568.5282971611862
      ],
      [
        1323.504753624016,
        866.2477427021213
      ],
      [
        1068.6680562829865,
        843.2883078645183
      ]
    ],
    "corner_residuals_px": [
      [
        0.07015562599110581,
        0.20002400724291647
      ],
      [
        -0.1535996507541313,
        -0.00992557915492398
      ],
      [
        0.009650672858924736,
        0.03643698537871387
      ],
      [
        0.11600133420097336,
        0.12349633470046228
      ]
    ],
    "corner_residual_norms_px": [
      0.2119703171005748,
      0.15392001115303938,
      0.03769336002691449,
      0.1694333326735165
    ],
    "d2_gt_corners": 7.204773008999178e-25
  },
  {
    "scene_id": "scene_0036_cam_0000",
    "tag_id": 141,
    "delta_se3": [
      -0.0015268319092628492,
      0.0008770401149535917,
      -0.00110532721683538,
      -0.0006419890644349074,
      -0.0001912243851426329,
      -0.00035280127051563385
    ],
    "cov_flat": [
      0.0007806149834672587,
      0.00010956334646488439,
      4.798536134537042e-05,
      3.8710159229754775e-05,
      -0.000222865649914221,
      3.234559707724241e-05,
      0.00010956334646498483,
      0.000660145790765385,
      -0.00024177541515370488,
      0.00018580726898425083,
      -1.6379647383753891e-07,
      9.152158895669694e-05,
      4.798536134528838e-05,
      -0.00024177541515373445,
      0.000347577635530613,
      -8.496893199501231e-05,
      -4.986932519164895e-05,
      -3.858921192308705e-05,
      3.871015922978613e-05,
      0.00018580726898425622,
      -8.496893199500547e-05,
      5.5542847056751046e-05,
      -2.3339286437314083e-06,
      2.084666357109457e-05,
      -0.0002228656499142121,
      -1.6379647381111747e-07,
      -4.9869325191669755e-05,
      -2.333928643723314e-06,
      6.90705861664581e-05,
      7.852994612281375e-07,
      3.2345597077256814e-05,
      9.152158895667991e-05,
      -3.8589211923074934e-05,
      2.0846663571088976e-05,
      7.852994612233672e-07,
      3.0026467645350345e-05
    ],
    "d2_total": 105.27231441576438,
    "d2_per_axis": [
      0.0029863834649812553,
      0.0011651961945345218,
      0.0035150370201808955,
      0.00742039669721814,
      0.0005294115411885048,
      0.004145300670980513
    ],
    "convergence": 1,
    "iterations": 1,
    "final_per_corner_d2": [
      0.08092548416212192,
      0.15097459187336218,
      0.06945731253251415,
      0.1121314312508522
    ],
    "final_per_corner_irls_weight": [
      1.0,
      1.0,
      1.0,
      1.0
    ],
    "gt_corners_px": [
      [
        540.7914984452749,
        921.2964967853162
      ],
      [
        526.1412742115135,
        974.4047675614249
      ],
      [
        465.55389232347846,
        998.3194331488078
      ],
      [
        479.70180675908597,
        943.4540348950366
      ]
    ],
    "corner_residuals_px": [
      [
        0.15900204300635323,
        -0.18077412906620793
      ],
      [
        -0.06900858651351882,
        -0.011762190331182865
      ],
      [
        0.14422779370903527,
        -0.09830277771402507
      ],
      [
        -0.06542370244534368,
        0.011541276838443082
      ]
    ],
